{"learner":{"attributes":{"scikit_learn":"{\"_estimator_type\": \"regressor\"}"},"feature_names":[],"feature_types":[],"gradient_booster":{"model":{"gbtree_model_param":{"num_parallel_tree":"1","num_trees":"100"},"iteration_indptr":[0,1,2,3,4,5,6,7,8,9,10,11,12,13,14,15,16,17,18,19,20,21,22,23,24,25,26,27,28,29,30,31,32,33,34,35,36,37,38,39,40,41,42,43,44,45,46,47,48,49,50,51,52,53,54,55,56,57,58,59,60,61,62,63,64,65,66,67,68,69,70,71,72,73,74,75,76,77,78,79,80,81,82,83,84,85,86,87,88,89,90,91,92,93,94,95,96,97,98,99,100],"tree_info":[0,0,0,0,0,0,0,0,0,0,0,0,0,0,0,0,0,0,0,0,0,0,0,0,0,0,0,0,0,0,0,0,0,0,0,0,0,0,0,0,0,0,0,0,0,0,0,0,0,0,0,0,0,0,0,0,0,0,0,0,0,0,0,0,0,0,0,0,0,0,0,0,0,0,0,0,0,0,0,0,0,0,0,0,0,0,0,0,0,0,0,0,0,0,0,0,0,0,0,0],"trees":[{"base_weights":[-2.366153E-3,3.1205797E-1,-9.0880655E-2,3.4722918E-1,8.699785E-3,-1.2435977E-2,-1.8892156E-1,3.1570607E-1,3.2314114E-2,-2.2025922E-2,1.5663762E-1,-2.620724E-1,-1.2283873E-1,3.5962313E-1,1.998846E-1,3.173967E-2,-6.488076E-2,1.8569645E-1,-4.0927395E-2,-2.2444667E-1,-3.6619523E-1,2.1205837E-2,-1.3011728E-1,3.1314278E-1,6.798768E-1,7.259179E-3,1.0871726E-2,-2.4221556E-2,1.6307035E-1,-1.9183898E-1,-4.5007247E-2,1.12555055E-2,7.886163E-3,6.4576054E-3,-1.2164746E-2,-1.5753554E-1,-2.2931522E-1,-2.625712E-1,-2.1136796E-2,-2.056045E-1,-8.6589865E-2,3.9599484E-1,1.8301366E-1,5.490163E-1,5.182733E-2,-7.1296215E-2,1.6476626E-2,8.505773E-3,1.3242495E-1,-2.3134992E-1,-4.3966803E-3,6.8202354E-2,-7.7624604E-2,-1.0048177E-2,-1.0867066E-1,-2.4120316E-1,-1.9118945E-1,-2.801971E-1,-1.9147464E-3,-3.1215417E-1,-1.3353956E-1,1.623693E-2,-1.05554774E-1,3.309034E-1,3.365172E-2,1.016917E-2,8.170209E-3,3.210876E-2,2.1583872E-2,-1.330316E-1,2.7440372E-3,4.1310668E-2,-6.278338E-2,8.301077E-2,1.730108E-1,-1.3031286E-2,-8.262224E-3,-5.9086002E-2,1.3089928E-1,-2.5838042E-2,-1.08674355E-1,-1.189539E-1,-2.7897456E-3,-2.111745E-1,-2.580114E-1,-1.2852676E-1,-2.3892672E-1,-1.5571619E-2,-2.0097837E-1,-1.6674872E-2,-9.3765624E-2,-6.09876E-2,-1.5961617E-1,1.3612083E-1,-1.8217401E-1,-1.739738E-1,-6.819586E-2,1.248455E-2,2.1352155E-2,-1.0604279E-1,-1.1181802E-2,1.0258722E-1,-2.368141E-2,4.7615618E-2,-5.84274E-2,-9.335788E-2,2.6309209E-2,2.770005E-3,6.357604E-3,9.997279E-3,3.9576045E-3,-2.3452014E-2,-1.6914746E-2,4.2035192E-1,3.4706967E-3,-4.7152612E-2,8.4638365E-2,-7.039474E-2,-2.4583869E-1,-3.973995E-3,-7.914746E-3,-2.5516126E-1,-1.8143868E-1,-2.0428339E-1,-2.8000104E-1,-1.8032256E-1,-7.822322E-2,-2.525429E-1,-6.210828E-3,-8.233706E-2,-1.4545425E-2,-1.6474575E-4,-8.0397455E-3,-2.0906426E-1,3.8414214E-2,-1.2552805E-1,-2.2828445E-1,2.8267282E-1,3.8999E-2,-1.3331138E-2,-1.1187262E-1,-1.1866359E-1,-2.1681412E-1,-1.7331222E-1,-4.9219735E-2,-1.4696427E-1,-6.0380533E-2,2.0391704E-3,6.619559E-3,-3.6147457E-2,4.128009E-2,3.247489E-2,8.654799E-2,-8.423954E-4,-4.789746E-3,3.8831483E-3,-1.3934906E-1,-6.5397457E-3,1.0157262E-1,-7.692081E-2,7.6528445E-2,5.623438E-2,2.766907E-2,-9.289746E-3,1.9170525E-2,5.6303274E-3,-7.861315E-2,-2.0942131E-2,1.423441E-1,-1.22711845E-1,-3.582513E-2,-1.11804895E-1,-2.807763E-1,-3.6423958E-3,-2.814175E-1,-1.9403338E-1,-1.1914534E-1,-2.4459346E-1,-5.08738E-3,-2.4019447E-1,-3.5387918E-1,-1.54147465E-2,-1.22638226E-1,5.5760506E-4,-1.0455561E-1,-7.7963695E-3,-2.725576E-1,-1.9147464E-3,-5.289746E-3,-2.7897456E-3,-1.2978295E-2,-7.164746E-3,8.758724E-2,-7.726571E-2,-1.652499E-1,-5.1647457E-3,-1.2129153E-2,1.7957604E-2,9.3831485E-3,9.335254E-3,-2.9892246E-3,8.525476E-5,-7.73387E-3,-3.6953904E-2,-1.4274749E-1,-2.5683215E-1,-1.1965589E-1,-6.6474563E-4,-1.9665006E-1,9.335255E-3,-5.6207858E-2,-1.0713773E-2,-5.7799527E-3,-4.7324034E-3,1.0523049E-3,-7.4075174E-4,-5.9915516E-3,4.289171E-3,-1.7897465E-3,4.4190683E-3,9.888278E-4,5.735244E-3,1.720313E-3,-2.5441616E-3,-7.997573E-3,8.210256E-3,1.5576052E-3,-9.045425E-3,-1.3309326E-3,6.3911304E-3,-1.0423952E-3,4.3352544E-3,5.852535E-4,6.406368E-3,-6.4370496E-4,-3.5027221E-3,1.4628051E-3,-5.6369007E-3,3.5850445E-4,4.455838E-3,-9.039747E-3,1.0997278E-2,-2.842396E-3,-1.7642396E-2,-5.1992745E-3,1.48741575E-2,-3.9615505E-3,-2.7897456E-3,-6.2137726E-3,-1.5272024E-2,-4.710829E-3,-1.6216716E-2,-7.48387E-3,-5.3311377E-3,-1.0316142E-2,-6.7338697E-3,-2.9147454E-3,-1.3070874E-2,-3.914746E-3,-1.2257406E-2,-5.539745E-3,-2.0022273E-2,-1.2275449E-2,-7.158217E-3,-2.289746E-3,-2.6168525E-3,-6.85887E-3,-1.4550586E-2,-6.8423958E-3,3.3525453E-4,5.4518227E-3,-5.923578E-3,-1.6643017E-3,-1.9423958E-3,-9.323313E-3,4.7891717E-3,-3.0976948E-3,-6.116853E-3,6.0852543E-3,-8.368768E-3,-2.858871E-3,-1.0600345E-2,-1.5506911E-2,3.8314718E-4,-1.0269328E-2,-7.559435E-3,-1.2973996E-2,7.0576044E-3,-3.1856317E-3],"categories":[],"categories_nodes":[],"categories_segments":[],"categories_sizes":[],"default_left":[0,0,0,0,0,0,0,0,0,0,0,0,0,0,0,0,0,0,0,0,0,0,0,0,0,0,0,0,0,0,0,0,0,0,0,0,0,0,0,0,0,0,0,0,0,0,0,0,0,0,0,0,0,0,0,0,0,0,0,0,0,0,0,0,0,0,0,0,0,0,0,0,0,0,0,0,0,0,0,0,0,0,0,0,0,0,0,0,0,0,0,0,0,0,0,0,0,0,0,0,0,0,0,0,0,0,0,0,0,0,0,0,0,0,0,0,0,0,0,0,0,0,0,0,0,0,0,0,0,0,0,0,0,0,0,0,0,0,0,0,0,0,0,0,0,0,0,0,0,0,0,0,0,0,0,0,0,0,0,0,0,0,0,0,0,0,0,0,0,0,0,0,0,0,0,0,0,0,0,0,0,0,0,0,0,0,0,0,0,0,0,0,0,0,0,0,0,0,0,0,0,0,0,0,0,0,0,0,0,0,0,0,0,0,0,0,0,0,0,0,0,0,0,0,0,0,0,0,0,0,0,0,0,0,0,0,0,0,0,0,0,0,0,0,0,0,0,0,0,0,0,0,0,0,0,0,0,0,0,0,0,0,0,0,0,0,0,0,0,0,0,0,0,0,0,0,0,0,0,0,0,0,0,0,0,0,0,0,0],"id":0,"left_children":[1,3,5,7,-1,9,11,13,-1,15,17,19,21,23,25,27,29,31,33,35,37,-1,39,41,43,-1,-1,45,47,49,51,-1,-1,-1,-1,53,55,57,-1,59,61,63,65,67,-1,69,71,-1,73,75,-1,77,79,-1,81,83,85,87,-1,89,91,93,95,97,-1,-1,-1,-1,-1,99,101,103,105,107,109,-1,-1,111,113,115,117,119,-1,121,123,125,127,-1,129,-1,131,133,135,137,139,141,143,-1,-1,145,-1,147,149,151,153,155,157,-1,-1,-1,-1,159,-1,161,163,165,167,169,171,-1,-1,173,175,177,179,181,183,185,-1,187,-1,-1,-1,189,191,193,195,197,199,-1,201,203,205,207,209,211,213,-1,-1,215,217,219,221,-1,-1,-1,223,-1,225,227,229,231,-1,-1,233,235,237,239,241,243,245,247,249,-1,251,253,255,257,-1,259,261,-1,263,-1,265,-1,267,-1,-1,-1,-1,-1,269,271,273,-1,-1,-1,-1,-1,275,-1,-1,277,279,281,283,-1,285,-1,287,-1,-1,-1,-1,-1,-1,-1,-1,-1,-1,-1,-1,-1,-1,-1,-1,-1,-1,-1,-1,-1,-1,-1,-1,-1,-1,-1,-1,-1,-1,-1,-1,-1,-1,-1,-1,-1,-1,-1,-1,-1,-1,-1,-1,-1,-1,-1,-1,-1,-1,-1,-1,-1,-1,-1,-1,-1,-1,-1,-1,-1,-1,-1,-1,-1,-1,-1,-1,-1,-1,-1,-1,-1,-1,-1,-1,-1,-1],"loss_changes":[6.676733E1,2.4986E0,1.4394804E1,3.7459106E0,0E0,1.6913342E0,3.989708E0,1.8660889E0,0E0,2.2739172E0,3.2909656E-1,1.4613819E0,1.8028641E0,3.8806152E0,7.115221E-2,3.2229984E0,1.3765507E0,1.8518567E-2,3.067706E-1,5.89962E-2,4.9247646E-1,0E0,1.4082179E0,2.536644E0,1.0178356E0,0E0,0E0,5.9125745E-1,5.7554245E-3,2.8345585E-1,1.7629704E0,0E0,0E0,0E0,0E0,2.6969552E-2,7.625961E-2,1.4343977E-1,0E0,1.1715174E0,5.418918E-1,2.4281273E0,5.112648E-3,1.7929077E-2,0E0,6.540044E-1,3.2933912E-1,0E0,4.379815E-2,5.9503794E-2,0E0,8.6165726E-1,5.9213734E-1,0E0,4.3152273E-4,4.7470093E-2,1.756947E-1,2.6488304E-2,0E0,2.6238012E-1,1.7188883E-1,1.071394E0,5.862541E-1,8.381071E-1,0E0,0E0,0E0,0E0,0E0,1.6701889E-1,1.7656384E-1,8.264518E-2,1.1141464E-1,1.1237331E-2,2.2094876E-2,0E0,0E0,3.5024208E-1,2.6542282E0,3.336569E-1,1.1955826E0,2.9482096E-3,0E0,5.5726767E-2,9.048271E-2,6.927097E-2,2.7982473E-2,0E0,1.1474997E-1,0E0,4.1919515E-2,4.0544647E-1,1.35198E-1,3.875112E-1,7.1098864E-2,1.6857147E-1,2.966588E-1,0E0,0E0,1.0697734E-1,0E0,2.0388633E-2,4.4412255E-2,6.7925125E-2,1.0815835E-2,2.4678573E-1,1.433513E-1,0E0,0E0,0E0,0E0,1.8229918E-1,0E0,1.0345247E0,1.551051E-1,1.9639102E-1,1.431108E-1,3.2476568E-1,2.0274854E-1,0E0,0E0,1.183182E-1,1.6110063E-2,1.4044213E-1,1.67912E-1,7.2921306E-2,4.3528393E-2,2.1313906E-2,0E0,3.1805336E-3,0E0,0E0,0E0,7.0661426E-2,1.6444898E-1,8.116835E-2,1.4260292E-2,1.2529552E-2,1.121926E-1,0E0,5.3742096E-2,6.950462E-2,1.4423203E-1,8.327812E-2,2.2647026E-1,4.278928E-2,8.849096E-2,0E0,0E0,7.855749E-2,3.3941466E-2,6.0725003E-2,4.4502318E-2,0E0,0E0,0E0,3.560379E-2,0E0,3.0169554E-2,1.1026214E-1,6.2602885E-2,8.482987E-3,0E0,0E0,1.6924062E-1,8.2514524E-2,2.1743155E-1,1.7445083E-1,2.4436727E-1,2.7360082E-1,1.6294668E0,1.4477819E-3,1.5067482E-1,0E0,9.280121E-2,2.0970464E-2,2.5454313E-3,5.7871103E-2,0E0,1.0657787E-2,4.2986393E-2,0E0,1.2371331E-2,0E0,1.666902E-2,0E0,2.529025E-2,0E0,0E0,0E0,0E0,0E0,2.355691E-2,3.9549798E-2,6.2482715E-2,0E0,0E0,0E0,0E0,0E0,9.329562E-2,0E0,0E0,1.5035708E-1,5.1544726E-2,8.3220005E-3,1.6530077E-1,0E0,1.7896116E-2,0E0,1.9857931E-1,0E0,0E0,0E0,0E0,0E0,0E0,0E0,0E0,0E0,0E0,0E0,0E0,0E0,0E0,0E0,0E0,0E0,0E0,0E0,0E0,0E0,0E0,0E0,0E0,0E0,0E0,0E0,0E0,0E0,0E0,0E0,0E0,0E0,0E0,0E0,0E0,0E0,0E0,0E0,0E0,0E0,0E0,0E0,0E0,0E0,0E0,0E0,0E0,0E0,0E0,0E0,0E0,0E0,0E0,0E0,0E0,0E0,0E0,0E0,0E0,0E0,0E0,0E0,0E0,0E0,0E0,0E0,0E0,0E0,0E0,0E0,0E0,0E0,0E0,0E0,0E0,0E0,0E0],"parents":[2147483647,0,0,1,1,2,2,3,3,5,5,6,6,7,7,9,9,10,10,11,11,12,12,13,13,14,14,15,15,16,16,17,17,18,18,19,19,20,20,22,22,23,23,24,24,27,27,28,28,29,29,30,30,35,35,36,36,37,37,39,39,40,40,41,41,42,42,43,43,45,45,46,46,48,48,49,49,51,51,52,52,54,54,55,55,56,56,57,57,59,59,60,60,61,61,62,62,63,63,69,69,70,70,71,71,72,72,73,73,74,74,77,77,78,78,79,79,80,80,81,81,83,83,84,84,85,85,86,86,88,88,90,90,91,91,92,92,93,93,94,94,95,95,96,96,99,99,101,101,102,102,103,103,104,104,105,105,106,106,111,111,113,113,114,114,115,115,116,116,117,117,118,118,121,121,122,122,123,123,124,124,125,125,126,126,127,127,129,129,133,133,134,134,135,135,136,136,137,137,138,138,140,140,141,141,142,142,143,143,144,144,145,145,146,146,149,149,150,150,151,151,152,152,156,156,158,158,159,159,160,160,161,161,164,164,165,165,166,166,167,167,168,168,169,169,170,170,171,171,172,172,174,174,175,175,176,176,177,177,179,179,180,180,182,182,184,184,186,186,192,192,193,193,194,194,200,200,203,203,204,204,205,205,206,206,208,208,210,210],"right_children":[2,4,6,8,-1,10,12,14,-1,16,18,20,22,24,26,28,30,32,34,36,38,-1,40,42,44,-1,-1,46,48,50,52,-1,-1,-1,-1,54,56,58,-1,60,62,64,66,68,-1,70,72,-1,74,76,-1,78,80,-1,82,84,86,88,-1,90,92,94,96,98,-1,-1,-1,-1,-1,100,102,104,106,108,110,-1,-1,112,114,116,118,120,-1,122,124,126,128,-1,130,-1,132,134,136,138,140,142,144,-1,-1,146,-1,148,150,152,154,156,158,-1,-1,-1,-1,160,-1,162,164,166,168,170,172,-1,-1,174,176,178,180,182,184,186,-1,188,-1,-1,-1,190,192,194,196,198,200,-1,202,204,206,208,210,212,214,-1,-1,216,218,220,222,-1,-1,-1,224,-1,226,228,230,232,-1,-1,234,236,238,240,242,244,246,248,250,-1,252,254,256,258,-1,260,262,-1,264,-1,266,-1,268,-1,-1,-1,-1,-1,270,272,274,-1,-1,-1,-1,-1,276,-1,-1,278,280,282,284,-1,286,-1,288,-1,-1,-1,-1,-1,-1,-1,-1,-1,-1,-1,-1,-1,-1,-1,-1,-1,-1,-1,-1,-1,-1,-1,-1,-1,-1,-1,-1,-1,-1,-1,-1,-1,-1,-1,-1,-1,-1,-1,-1,-1,-1,-1,-1,-1,-1,-1,-1,-1,-1,-1,-1,-1,-1,-1,-1,-1,-1,-1,-1,-1,-1,-1,-1,-1,-1,-1,-1,-1,-1,-1,-1,-1,-1,-1,-1,-1,-1],"split_conditions":[1.6446115E-1,9.496964E-1,6.4395094E-1,6.973579E-1,8.699785E-3,3.582135E-1,6.973579E-1,5.990744E-1,3.2314114E-2,4.0173013E-2,6.067652E-1,8.3255875E-1,8.069959E-1,3.5125977E-1,6.664351E-2,4.000139E-1,2.5045255E-1,3.333595E-1,1.6903266E-1,6.5413845E-1,4.249983E-5,2.1205837E-2,3.3331087E-1,2.5045255E-1,3.3331448E-1,7.259179E-3,1.0871726E-2,3.3329338E-1,7.854517E-3,5.999553E-1,1.6784255E-1,1.12555055E-2,7.886163E-3,6.4576054E-3,-1.2164746E-2,3.3334178E-1,6.7394596E-1,2.7011887E-5,-2.1136796E-2,3.343952E-1,1.6733281E-1,2.4272967E-2,3.3329338E-1,6.668084E-2,5.182733E-2,6.6596645E-1,6.6815805E-1,8.505773E-3,1.2069548E-2,1.8466152E-1,-4.3966803E-3,1.4578994E-5,3.333049E-1,-1.0048177E-2,1.6717833E-1,6.624493E-1,6.783028E-1,6.0560833E-6,-1.9147464E-3,3.3397882E-5,9.9350685E-1,9.999894E-1,3.348463E-1,3.3337915E-1,3.365172E-2,1.016917E-2,8.170209E-3,3.210876E-2,2.1583872E-2,5.6901517E-5,6.6841465E-1,3.3337098E-1,7.02178E-3,6.655709E-1,9.999988E-1,-1.3031286E-2,-8.262224E-3,8.093161E-6,1.9998026E-1,9.998751E-1,9.984338E-1,1.6669582E-1,-2.7897456E-3,6.5733546E-1,1.6827768E-1,3.3313286E-1,9.999939E-1,-1.5571619E-2,1.1786307E-5,-1.6674872E-2,9.9652064E-1,9.8941255E-1,1.5288242E-5,9.938074E-1,9.9999756E-1,3.3286455E-1,9.860966E-1,1.248455E-2,2.1352155E-2,2.8140252E-3,-1.1181802E-2,6.6678417E-1,1.0011442E-2,3.3334583E-1,3.3337915E-1,3.33316E-1,3.333304E-1,2.770005E-3,6.357604E-3,9.997279E-3,3.9576045E-3,8.873432E-7,-1.6914746E-2,3.9169747E-5,3.3331087E-1,3.3428124E-1,3.2264396E-7,3.3337915E-1,3.269584E-1,-3.973995E-3,-7.914746E-3,2.126367E-6,9.999946E-1,1.6701859E-1,9.9997836E-1,3.33306E-1,3.3399448E-1,1.6729324E-1,-6.210828E-3,6.725302E-1,-1.4545425E-2,-1.6474575E-4,-8.0397455E-3,6.666179E-1,6.6493833E-1,6.678365E-1,6.656814E-1,9.8753524E-1,3.3332533E-1,-1.3331138E-2,9.9606055E-1,3.3333105E-1,3.333673E-1,6.6777146E-1,9.871083E-1,1.6653039E-1,9.625786E-6,2.0391704E-3,6.619559E-3,5.897387E-3,1.3120459E-2,3.3331448E-1,3.3335757E-1,-8.423954E-4,-4.789746E-3,3.8831483E-3,3.3333156E-1,-6.5397457E-3,7.854517E-3,3.2990175E-1,3.4211528E-1,1.9370267E-5,2.766907E-2,-9.289746E-3,3.3332694E-1,3.3194995E-1,3.44818E-5,3.2599849E-1,2.7011887E-5,1.6858406E-1,6.666342E-1,3.1797296E-1,3.474932E-1,-3.6423958E-3,6.6561383E-1,1.6618212E-1,6.618102E-1,9.999953E-1,-5.08738E-3,9.999585E-1,6.6596645E-1,-1.54147465E-2,9.9996674E-1,5.5760506E-4,3.333138E-1,-7.7963695E-3,6.669747E-1,-1.9147464E-3,-5.289746E-3,-2.7897456E-3,-1.2978295E-2,-7.164746E-3,6.673725E-1,6.6629684E-1,9.968674E-1,-5.1647457E-3,-1.2129153E-2,1.7957604E-2,9.3831485E-3,9.335254E-3,1.6571394E-1,8.525476E-5,-7.73387E-3,9.930149E-1,3.32452E-1,3.3333284E-1,9.999704E-1,-6.6474563E-4,9.808093E-1,9.335255E-3,3.33316E-1,-1.0713773E-2,-5.7799527E-3,-4.7324034E-3,1.0523049E-3,-7.4075174E-4,-5.9915516E-3,4.289171E-3,-1.7897465E-3,4.4190683E-3,9.888278E-4,5.735244E-3,1.720313E-3,-2.5441616E-3,-7.997573E-3,8.210256E-3,1.5576052E-3,-9.045425E-3,-1.3309326E-3,6.3911304E-3,-1.0423952E-3,4.3352544E-3,5.852535E-4,6.406368E-3,-6.4370496E-4,-3.5027221E-3,1.4628051E-3,-5.6369007E-3,3.5850445E-4,4.455838E-3,-9.039747E-3,1.0997278E-2,-2.842396E-3,-1.7642396E-2,-5.1992745E-3,1.48741575E-2,-3.9615505E-3,-2.7897456E-3,-6.2137726E-3,-1.5272024E-2,-4.710829E-3,-1.6216716E-2,-7.48387E-3,-5.3311377E-3,-1.0316142E-2,-6.7338697E-3,-2.9147454E-3,-1.3070874E-2,-3.914746E-3,-1.2257406E-2,-5.539745E-3,-2.0022273E-2,-1.2275449E-2,-7.158217E-3,-2.289746E-3,-2.6168525E-3,-6.85887E-3,-1.4550586E-2,-6.8423958E-3,3.3525453E-4,5.4518227E-3,-5.923578E-3,-1.6643017E-3,-1.9423958E-3,-9.323313E-3,4.7891717E-3,-3.0976948E-3,-6.116853E-3,6.0852543E-3,-8.368768E-3,-2.858871E-3,-1.0600345E-2,-1.5506911E-2,3.8314718E-4,-1.0269328E-2,-7.559435E-3,-1.2973996E-2,7.0576044E-3,-3.1856317E-3],"split_indices":[2,0,0,0,0,0,0,0,0,0,0,2,0,0,1,1,0,1,2,0,1,0,1,0,1,0,0,1,0,1,2,0,0,0,0,1,0,1,0,2,2,0,1,1,0,2,2,0,0,0,0,1,1,0,2,0,0,1,0,1,0,1,2,1,0,0,0,0,0,1,2,1,0,2,1,0,0,1,1,2,2,2,0,0,2,2,1,0,1,0,0,0,1,0,1,2,0,0,0,0,0,2,0,1,1,1,1,0,0,0,0,1,0,1,1,2,1,1,0,0,0,1,1,2,1,1,2,2,0,0,0,0,0,2,2,2,2,0,1,0,0,1,1,2,0,2,1,0,0,0,0,1,1,0,0,0,1,0,0,0,0,1,0,0,1,2,1,0,1,2,1,0,0,0,2,2,0,1,0,1,2,0,1,0,1,0,2,0,0,0,0,0,2,2,0,0,0,0,0,0,2,0,0,0,2,1,1,0,0,0,1,0,0,0,0,0,0,0,0,0,0,0,0,0,0,0,0,0,0,0,0,0,0,0,0,0,0,0,0,0,0,0,0,0,0,0,0,0,0,0,0,0,0,0,0,0,0,0,0,0,0,0,0,0,0,0,0,0,0,0,0,0,0,0,0,0,0,0,0,0,0,0,0,0,0,0,0,0,0],"split_type":[0,0,0,0,0,0,0,0,0,0,0,0,0,0,0,0,0,0,0,0,0,0,0,0,0,0,0,0,0,0,0,0,0,0,0,0,0,0,0,0,0,0,0,0,0,0,0,0,0,0,0,0,0,0,0,0,0,0,0,0,0,0,0,0,0,0,0,0,0,0,0,0,0,0,0,0,0,0,0,0,0,0,0,0,0,0,0,0,0,0,0,0,0,0,0,0,0,0,0,0,0,0,0,0,0,0,0,0,0,0,0,0,0,0,0,0,0,0,0,0,0,0,0,0,0,0,0,0,0,0,0,0,0,0,0,0,0,0,0,0,0,0,0,0,0,0,0,0,0,0,0,0,0,0,0,0,0,0,0,0,0,0,0,0,0,0,0,0,0,0,0,0,0,0,0,0,0,0,0,0,0,0,0,0,0,0,0,0,0,0,0,0,0,0,0,0,0,0,0,0,0,0,0,0,0,0,0,0,0,0,0,0,0,0,0,0,0,0,0,0,0,0,0,0,0,0,0,0,0,0,0,0,0,0,0,0,0,0,0,0,0,0,0,0,0,0,0,0,0,0,0,0,0,0,0,0,0,0,0,0,0,0,0,0,0,0,0,0,0,0,0,0,0,0,0,0,0,0,0,0,0,0,0,0,0,0,0,0,0],"sum_hessian":[2.397E3,5.26E2,1.871E3,4.18E2,1.08E2,1.04E3,8.31E2,3.8E2,3.8E1,9.85E2,5.5E1,3.93E2,4.38E2,2.74E2,1.06E2,4.37E2,5.48E2,4.8E1,7E0,2.91E2,1.02E2,5E0,4.33E2,2.41E2,3.3E1,2.8E1,7.8E1,3.07E2,1.3E2,7.3E1,4.75E2,1.7E1,3.1E1,4E0,3E0,2.2E1,2.69E2,3.8E1,6.4E1,1.57E2,2.76E2,1.46E2,9.5E1,2.6E1,7E0,1.42E2,1.65E2,1.02E2,2.8E1,5.2E1,2.1E1,1.06E2,3.69E2,1E1,1.2E1,2.01E2,6.8E1,3.5E1,3E0,6.2E1,9.5E1,4.3E1,2.33E2,1.2E2,2.6E1,4.2E1,5.3E1,1.2E1,1.4E1,7.7E1,6.5E1,1.26E2,3.9E1,1.4E1,1.4E1,3.4E1,1.8E1,3.5E1,7.1E1,1.39E2,2.3E2,9E0,3E0,7.7E1,1.24E2,3.1E1,3.7E1,2.3E1,1.2E1,5.6E1,6E0,2.6E1,6.9E1,2.7E1,1.6E1,8.1E1,1.52E2,6.7E1,5.3E1,6.1E1,1.6E1,1.3E1,5.2E1,1.19E2,7E0,2.9E1,1E1,1E1,4E0,1E1,4E0,3.2E1,3E0,2.1E1,5E1,1.17E2,2.2E1,1.81E2,4.9E1,6E0,3E0,2.8E1,4.9E1,3.9E1,8.5E1,1.4E1,1.7E1,3.2E1,5E0,6E0,6E0,3E0,3E0,1E1,1.6E1,4.8E1,2.1E1,1E1,1.7E1,6E0,1E1,3.7E1,4.4E1,2.2E1,1.3E2,3.1E1,3E1,5E0,8E0,4.4E1,8E0,8.7E1,3.2E1,4E0,3E0,6E0,2.3E1,3E0,7E0,2.1E1,1.1E1,6E0,1.5E1,3E0,4.7E1,4.4E1,7.3E1,8E0,1.4E1,7.1E1,1.1E2,1.1E1,3.8E1,4E0,2.4E1,3.9E1,1E1,2.7E1,1.2E1,5.8E1,2.7E1,3E0,1.1E1,4E0,1.3E1,7E0,2.5E1,3E0,3E0,3E0,7E0,3E0,1.3E1,2.3E1,2.5E1,3E0,1.8E1,4E0,6E0,3E0,1.4E1,3E0,7E0,9E0,2.8E1,3E1,1.4E1,3E0,1.9E1,3E0,1.27E2,8E0,2.3E1,2.1E1,9E0,3.6E1,8E0,5E0,3E0,1.5E1,7.2E1,2E1,1.2E1,5E0,1.8E1,3E0,4E0,6E0,1.5E1,7E0,4E0,3E0,3E0,1E1,3.7E1,1E1,3.4E1,5.2E1,2.1E1,5E0,3E0,1E1,4E0,4E0,6.7E1,1.2E1,9.8E1,3E0,8E0,3.3E1,5E0,1.7E1,7E0,6E0,3.3E1,7E0,3E0,2.4E1,3E0,5.5E1,3E0,1.7E1,1E1,8E0,3E0,6E0,7E0,2.1E1,4E0,3E0,1E1,1.1E1,1.2E1,4E0,2.1E1,5E0,9E0,6E0,3E0,2.1E1,7E0,1.9E1,1.1E1,6E0,8E0,1.3E1,6E0,4E0,1.23E2],"tree_param":{"num_deleted":"0","num_feature":"4","num_nodes":"289","size_leaf_vector":"1"}},{"base_weights":[-2.2971479E-4,1.346069E-1,-2.5834996E-1,3.016385E-1,5.7437688E-2,-1.8475443E-1,-3.3536446E-1,1.9511373E-1,3.4620342E-1,5.0973352E-2,1.24083266E-1,-2.1948001E-1,-1.0198618E-1,-3.1796244E-1,-3.6764693E-1,1.9873822E-1,1.2522204E-1,3.0835042E-2,2.8519452E-1,7.633831E-2,3.430576E-2,4.5754063E-1,5.4976918E-2,-1.366781E-1,-2.2974278E-1,-4.081163E-2,-1.730044E-1,-3.4542704E-1,-2.4203502E-1,-2.0593736E-2,-1.6934333E-2,1.0160517E-2,1.3447407E-1,7.755054E-2,8.867084E-3,2.105512E-1,3.374355E-1,2.1795157E-2,9.7919375E-2,7.0354156E-2,1.5734246E-2,1.4396176E-2,2.7873678E-2,-3.261134E-2,1.5033823E-1,-1.9723266E-1,-6.853031E-2,-2.497101E-1,-2.0420028E-1,-9.920817E-2,6.6525815E-3,-9.50637E-2,-1.9564319E-1,-2.0292705E-2,-1.5888225E-2,-1.175883E-1,-2.6662877E-1,7.500482E-3,3.2950267E-3,6.0266606E-3,7.5901154E-4,1.7905985E-1,2.2405863E-1,7.429964E-1,2.5680995E-1,-2.5706898E-2,1.137256E-1,1.20663464E-1,7.050114E-2,3.2280836E-2,4.8054293E-1,-1.9065139E-1,2.55988E-2,7.0859045E-2,-5.65833E-3,2.2321574E-1,-3.8020194E-3,-2.37754E-4,-2.518866E-1,-8.385118E-2,3.0277597E-4,-1.805478E-1,-1.279321E-2,-5.0854415E-2,-2.1324955E-1,-7.346356E-2,-1.0919373E-2,3.1919163E-2,-5.2857157E-2,-1.7342663E-1,4.8173736E-3,-1.0634704E-1,-2.1877891E-1,-1.3662154E-2,-5.029672E-2,-1.2488578E-1,-1.39910495E-2,9.210098E-3,4.2722523E-3,1.3712569E-2,2.0825644E-1,2.3590336E-2,4.373832E-2,2.4494092E-1,1.5788851E-2,2.6459463E-2,-1.0309955E-1,3.701777E-2,1.3625501E-1,1.827907E-1,9.6410014E-2,5.560973E-2,1.3606587E-1,-1.1039317E-1,7.240052E-2,2.7210241E-2,6.879533E-3,-1.1613856E-2,6.553978E-4,6.444458E-3,7.5448625E-2,8.043625E-3,8.469781E-4,8.8498E-2,1.9110734E-2,-1.4167743E-2,-5.1188646E-3,-2.3288361E-3,-9.783074E-2,-2.2205983E-1,-2.6555897E-3,-1.1940975E-3,-3.5928197E-3,-1.9583005E-1,-1.2398227E-2,-9.575916E-2,2.1894467E-3,1.3646434E-2,2.9459125E-3,-6.968091E-3,7.815398E-3,-1.1045189E-2,-1.1473916E-1,-1.5117979E-3,-7.275983E-3,-1.4914214E-2,-1.8711884E-1,-8.477271E-3,3.8667382E-3,-9.182828E-3,-1.7446794E-3,9.168073E-3,1.2584294E-2,8.266071E-3,1.2531224E-2,4.1610636E-2,-2.4154218E-2,-1.1191798E-1,-8.900106E-4,3.399436E-3,-3.7754595E-4,1.5534507E-1,5.4065507E-2,1.3499881E-1,9.895576E-3,8.921691E-2,1.2821826E-1,-1.2229025E-2,5.9802346E-2,1.0242247E-1,8.478003E-3,-5.1677614E-2,-1.0996953E-2,-6.962349E-2,8.120209E-2,2.6979981E-2,-5.2071318E-2,-7.831976E-2,1.10741794E-1,-5.5373218E-2,1.28637375E-2,-5.9359944E-3,-2.6598813E-3,-5.5434243E-3,-1.2494901E-2,-1.3475269E-1,-2.0462675E-1,-7.4481964E-2,-8.910268E-3,1.5354101E-3,-2.6873404E-3,-7.787049E-5,6.875283E-4,-2.7970285E-3,-7.2426475E-3,-2.2026865E-1,-1.3447529E-1,3.8509846E-3,1.7942087E-3,-5.937224E-2,1.4990926E-3,-2.3911588E-3,-5.8968603E-3,9.775673E-2,9.606203E-3,-1.3436385E-3,6.0743704E-3,7.5963396E-3,3.8764346E-3,1.0184624E-1,5.2754942E-2,1.5018706E-1,8.1983894E-2,1.3925553E-3,-2.462595E-3,8.348894E-2,4.517412E-2,6.537785E-3,2.7704928E-3,-8.671656E-3,1.5124105E-2,-5.2003395E-3,-1.0657746E-3,5.7631698E-2,6.405487E-3,-1.1357372E-2,1.1174584E-1,-9.105773E-2,2.807115E-2,-9.509389E-3,-3.8466014E-2,5.3641517E-2,1.6792442E-1,-9.649567E-3,6.0421587E-3,-1.7846617E-1,-2.7004636E-3,-2.2550583E-1,-1.5695238E-1,-1.09769456E-1,2.6667202E-3,-6.420175E-3,-1.2668043E-2,-1.0450276E-2,-6.1768226E-2,-6.992564E-4,-4.4958144E-3,8.7668495E-3,1.4188503E-3,1.2571969E-3,5.2499757E-3,-2.1363902E-3,4.176808E-3,3.4330897E-3,9.348205E-3,3.2971503E-4,6.2949397E-3,6.527737E-4,4.4659837E-3,4.651229E-4,3.1871274E-3,-3.2506126E-3,3.965765E-3,-1.9627437E-3,3.121361E-3,7.255004E-4,-9.96845E-3,7.63402E-3,4.635983E-5,-5.4702065E-3,1.6014461E-3,7.5954697E-3,-1.5928459E-3,5.225282E-3,-3.9749183E-3,5.7111825E-3,-1.6041797E-3,9.389215E-3,3.0023442E-3,-4.7745565E-3,-1.1878422E-2,-9.008978E-3,-1.4478104E-2,-1.1872937E-3,-9.537848E-3,-8.990912E-3,-3.0790998E-3,-4.2692865E-3,-8.4021466E-4],"categories":[],"categories_nodes":[],"categories_segments":[],"categories_sizes":[],"default_left":[0,0,0,0,0,0,0,0,0,0,0,0,0,0,0,0,0,0,0,0,0,0,0,0,0,0,0,0,0,0,0,0,0,0,0,0,0,0,0,0,0,0,0,0,0,0,0,0,0,0,0,0,0,0,0,0,0,0,0,0,0,0,0,0,0,0,0,0,0,0,0,0,0,0,0,0,0,0,0,0,0,0,0,0,0,0,0,0,0,0,0,0,0,0,0,0,0,0,0,0,0,0,0,0,0,0,0,0,0,0,0,0,0,0,0,0,0,0,0,0,0,0,0,0,0,0,0,0,0,0,0,0,0,0,0,0,0,0,0,0,0,0,0,0,0,0,0,0,0,0,0,0,0,0,0,0,0,0,0,0,0,0,0,0,0,0,0,0,0,0,0,0,0,0,0,0,0,0,0,0,0,0,0,0,0,0,0,0,0,0,0,0,0,0,0,0,0,0,0,0,0,0,0,0,0,0,0,0,0,0,0,0,0,0,0,0,0,0,0,0,0,0,0,0,0,0,0,0,0,0,0,0,0,0,0,0,0,0,0,0,0,0,0,0,0,0,0,0,0,0,0,0,0,0,0,0,0,0,0,0,0,0,0,0,0,0,0,0,0,0,0,0,0,0,0,0,0,0,0,0,0,0,0,0,0,0,0,0,0],"id":1,"left_children":[1,3,5,7,9,11,13,15,17,19,21,23,25,27,29,31,33,-1,35,37,39,41,43,45,47,49,51,53,55,-1,-1,-1,57,59,-1,61,63,65,67,69,71,-1,-1,73,75,77,79,81,83,85,87,89,91,-1,-1,93,95,-1,-1,-1,-1,97,99,101,103,105,107,109,111,113,115,117,119,121,-1,123,-1,-1,125,127,-1,129,-1,131,133,135,-1,137,139,141,-1,143,145,-1,147,149,-1,-1,-1,-1,151,-1,-1,153,-1,155,157,159,161,163,165,167,169,171,173,-1,-1,-1,-1,175,177,-1,-1,179,-1,-1,-1,-1,181,183,-1,-1,-1,185,-1,187,-1,189,-1,-1,191,-1,193,-1,-1,-1,195,-1,-1,-1,-1,-1,-1,-1,-1,197,199,201,-1,-1,-1,203,205,207,-1,209,211,213,215,217,-1,219,-1,221,223,225,227,229,231,233,-1,-1,-1,-1,-1,235,237,239,-1,-1,-1,-1,-1,-1,-1,241,243,-1,-1,245,-1,-1,-1,247,-1,-1,-1,-1,-1,249,251,253,255,-1,-1,257,259,-1,-1,-1,261,-1,-1,263,-1,265,267,269,271,-1,273,275,277,-1,-1,279,-1,281,283,285,-1,-1,-1,-1,287,-1,-1,-1,-1,-1,-1,-1,-1,-1,-1,-1,-1,-1,-1,-1,-1,-1,-1,-1,-1,-1,-1,-1,-1,-1,-1,-1,-1,-1,-1,-1,-1,-1,-1,-1,-1,-1,-1,-1,-1,-1,-1,-1,-1],"loss_changes":[8.286844E1,2.0142162E1,4.568733E0,2.2775993E0,4.5508265E-1,1.1847706E0,1.0668945E-1,1.2604713E-2,5.550579E0,4.108529E-1,2.140984E0,2.192831E-1,5.4034746E-1,4.710884E-1,3.0855179E-2,1.2622356E-2,1.1093259E-2,0E0,1.0402908E0,4.5340323E-1,3.9522105E-1,1.1069536E-1,6.647527E-1,1.309166E-1,8.21228E-2,1.9191048E-1,8.374131E-2,1.9364738E-1,1.9513321E-1,0E0,0E0,0E0,2.898246E-3,1.6936172E-2,0E0,1.0923862E-2,5.237156E0,4.876478E-1,1.6423106E-1,3.1235542E0,8.02954E-1,0E0,0E0,3.5809237E-1,6.43894E-1,1.8815619E-1,2.1076716E-2,1.4245033E-2,1.5567541E-1,7.907143E-2,6.032785E-2,2.417023E-1,6.763446E-2,0E0,0E0,1.3289633E-1,7.911873E-2,0E0,0E0,0E0,0E0,3.9972067E-3,6.3381195E-3,5.5211544E-1,2.0636559E-2,3.0148762E-1,6.0627043E-2,2.0839691E-1,1.1740637E-1,1.0669391E0,2.9628277E-1,1.557141E-1,3.57579E-1,8.9490995E-2,0E0,5.8735406E-1,0E0,0E0,3.6857963E-2,3.2595769E-3,0E0,6.755793E-2,0E0,2.8157309E-3,1.9774437E-2,7.477698E-2,0E0,1.3009692E-2,6.407067E-2,5.3031445E-3,0E0,2.8396264E-2,2.9768348E-2,0E0,1.8053053E-1,3.0613936E-2,0E0,0E0,0E0,0E0,2.4127007E-2,0E0,0E0,1.33214E-2,0E0,3.5513617E-2,2.0574063E-2,1.4316721E-2,3.7102282E-2,2.9108524E-3,1.3728738E-2,3.0880064E-2,8.550942E-3,2.5234804E-1,1.869086E-1,0E0,0E0,0E0,0E0,3.2825422E-1,5.7307845E-1,0E0,0E0,4.2704213E-1,0E0,0E0,0E0,0E0,3.007859E-3,6.343186E-3,0E0,0E0,0E0,1.5408516E-2,0E0,2.7074084E-2,0E0,2.2347726E-2,0E0,0E0,4.6644872E-4,0E0,4.2913854E-3,0E0,0E0,0E0,1.74976E-2,0E0,0E0,0E0,0E0,0E0,0E0,0E0,0E0,4.33312E-3,2.2752307E-2,4.776448E-3,0E0,0E0,0E0,2.9933512E-2,4.146379E-2,8.6839497E-4,0E0,3.7452698E-2,5.9699416E-3,1.175889E-2,3.087774E-2,1.1403114E-2,0E0,2.3036042E-1,0E0,1.2731936E-2,1.4408845E-1,6.577083E-1,2.2439328E-1,8.185143E-2,2.6852953E-1,2.6582736E-1,0E0,0E0,0E0,0E0,0E0,3.624566E-2,3.229332E-2,9.606086E-2,0E0,0E0,0E0,0E0,0E0,0E0,0E0,1.3067901E-2,5.753547E-2,0E0,0E0,8.446651E-3,0E0,0E0,0E0,5.4231927E-2,0E0,0E0,0E0,0E0,0E0,1.38065815E-2,7.998526E-2,2.0143539E-2,2.5655597E-2,0E0,0E0,1.4029026E-2,4.203619E-2,0E0,0E0,0E0,1.0289339E-1,0E0,0E0,4.5660347E-2,0E0,6.8376434E-1,2.8564608E-1,1.1189759E-1,1.8295264E-1,0E0,1.0217145E-1,2.3217475E-1,7.870638E-2,0E0,0E0,1.6546458E-2,0E0,7.8481436E-2,1.0354203E-1,4.2934E-2,0E0,0E0,0E0,0E0,7.0606396E-3,0E0,0E0,0E0,0E0,0E0,0E0,0E0,0E0,0E0,0E0,0E0,0E0,0E0,0E0,0E0,0E0,0E0,0E0,0E0,0E0,0E0,0E0,0E0,0E0,0E0,0E0,0E0,0E0,0E0,0E0,0E0,0E0,0E0,0E0,0E0,0E0,0E0,0E0,0E0,0E0,0E0,0E0,0E0,0E0],"parents":[2147483647,0,0,1,1,2,2,3,3,4,4,5,5,6,6,7,7,8,8,9,9,10,10,11,11,12,12,13,13,14,14,15,15,16,16,18,18,19,19,20,20,21,21,22,22,23,23,24,24,25,25,26,26,27,27,28,28,32,32,33,33,35,35,36,36,37,37,38,38,39,39,40,40,43,43,44,44,45,45,46,46,47,47,48,48,49,49,50,50,51,51,52,52,55,55,56,56,61,61,62,62,63,63,64,64,65,65,66,66,67,67,68,68,69,69,70,70,71,71,72,72,73,73,75,75,78,78,79,79,81,81,83,83,84,84,85,85,87,87,88,88,89,89,91,91,92,92,94,94,95,95,100,100,103,103,105,105,106,106,107,107,108,108,109,109,110,110,111,111,112,112,113,113,114,114,119,119,120,120,123,123,128,128,129,129,133,133,135,135,137,137,140,140,142,142,146,146,155,155,156,156,157,157,161,161,162,162,163,163,165,165,166,166,167,167,168,168,169,169,171,171,173,173,174,174,175,175,176,176,177,177,178,178,179,179,185,185,186,186,187,187,195,195,196,196,199,199,203,203,209,209,210,210,211,211,212,212,215,215,216,216,220,220,223,223,225,225,226,226,227,227,228,228,230,230,231,231,232,232,235,235,237,237,238,238,239,239,244,244],"right_children":[2,4,6,8,10,12,14,16,18,20,22,24,26,28,30,32,34,-1,36,38,40,42,44,46,48,50,52,54,56,-1,-1,-1,58,60,-1,62,64,66,68,70,72,-1,-1,74,76,78,80,82,84,86,88,90,92,-1,-1,94,96,-1,-1,-1,-1,98,100,102,104,106,108,110,112,114,116,118,120,122,-1,124,-1,-1,126,128,-1,130,-1,132,134,136,-1,138,140,142,-1,144,146,-1,148,150,-1,-1,-1,-1,152,-1,-1,154,-1,156,158,160,162,164,166,168,170,172,174,-1,-1,-1,-1,176,178,-1,-1,180,-1,-1,-1,-1,182,184,-1,-1,-1,186,-1,188,-1,190,-1,-1,192,-1,194,-1,-1,-1,196,-1,-1,-1,-1,-1,-1,-1,-1,198,200,202,-1,-1,-1,204,206,208,-1,210,212,214,216,218,-1,220,-1,222,224,226,228,230,232,234,-1,-1,-1,-1,-1,236,238,240,-1,-1,-1,-1,-1,-1,-1,242,244,-1,-1,246,-1,-1,-1,248,-1,-1,-1,-1,-1,250,252,254,256,-1,-1,258,260,-1,-1,-1,262,-1,-1,264,-1,266,268,270,272,-1,274,276,278,-1,-1,280,-1,282,284,286,-1,-1,-1,-1,288,-1,-1,-1,-1,-1,-1,-1,-1,-1,-1,-1,-1,-1,-1,-1,-1,-1,-1,-1,-1,-1,-1,-1,-1,-1,-1,-1,-1,-1,-1,-1,-1,-1,-1,-1,-1,-1,-1,-1,-1,-1,-1,-1,-1],"split_conditions":[6.64311E-1,2.7563153E-3,9.9731505E-1,5.6901517E-5,4.9902585E-1,5.999553E-1,6.684886E-1,1.4933242E-3,3.3328617E-1,3.476012E-2,3.3133417E-1,1.668174E-1,6.661072E-1,9.9996674E-1,9.9956524E-1,2.9162878E-5,4.8374088E-4,3.0835042E-2,3.3340064E-1,5.6901517E-5,1.9998026E-1,3.333595E-1,6.6432357E-1,2.126024E-5,3.333171E-1,3.3340928E-1,9.9998134E-1,3.3194995E-1,1.6629072E-1,-2.0593736E-2,-1.6934333E-2,1.0160517E-2,7.2172086E-4,3.2264396E-7,8.867084E-3,3.3332258E-1,9.333131E-1,9.985672E-1,9.9997526E-1,1.3331378E-1,2.6670304E-1,1.4396176E-2,2.7873678E-2,2.6670304E-1,6.666342E-1,6.664419E-1,3.3334875E-1,6.6556054E-1,3.3158728E-1,3.333042E-1,6.6432357E-1,6.671505E-1,6.6709226E-1,-2.0292705E-2,-1.5888225E-2,1.6539788E-1,9.99979E-1,7.500482E-3,3.2950267E-3,6.0266606E-3,7.5901154E-4,3.3332157E-1,3.3332828E-1,6.666342E-1,1.228552E-3,3.337851E-1,3.2190677E-2,1.6903266E-1,6.6815805E-1,1.6717833E-1,3.3439538E-1,3.347843E-1,9.9998206E-1,1.9998026E-1,-5.65833E-3,4.6663773E-1,-3.8020194E-3,-2.37754E-4,1.6669582E-1,1.6595428E-1,3.0277597E-4,6.6534275E-1,-1.279321E-2,1.6750401E-1,6.68991E-1,3.3293632E-1,-1.0919373E-2,9.9998784E-1,9.999953E-1,9.9996495E-1,4.8173736E-3,6.6624475E-1,6.660841E-1,-1.3662154E-2,9.991454E-1,9.9997354E-1,-1.39910495E-2,9.210098E-3,4.2722523E-3,1.3712569E-2,5.579595E-4,2.3590336E-2,4.373832E-2,9.9997526E-1,1.5788851E-2,3.3224514E-1,6.680037E-1,8.093161E-6,3.3822488E-2,1.6629072E-1,9.9818975E-1,9.999772E-1,3.317204E-2,1.666163E-1,3.5442427E-2,2.7210241E-2,6.879533E-3,-1.1613856E-2,6.553978E-4,9.97373E-1,1.6717833E-1,8.043625E-3,8.469781E-4,6.672177E-1,1.9110734E-2,-1.4167743E-2,-5.1188646E-3,-2.3288361E-3,3.3333346E-1,3.2264396E-7,-2.6555897E-3,-1.1940975E-3,-3.5928197E-3,3.3332643E-1,-1.2398227E-2,3.3273908E-1,2.1894467E-3,9.333131E-1,2.9459125E-3,-6.968091E-3,6.656814E-1,-1.1045189E-2,6.675131E-1,-1.5117979E-3,-7.275983E-3,-1.4914214E-2,9.9936897E-1,-8.477271E-3,3.8667382E-3,-9.182828E-3,-1.7446794E-3,9.168073E-3,1.2584294E-2,8.266071E-3,1.2531224E-2,3.1401593E-2,3.3310395E-1,3.3421788E-1,-8.900106E-4,3.399436E-3,-3.7754595E-4,3.317204E-2,3.4113433E-2,1.6576542E-1,9.895576E-3,6.666179E-1,3.3334827E-1,9.9997646E-1,3.3203784E-1,3.2551862E-2,8.478003E-3,3.3296856E-1,-1.0996953E-2,1.225381E-5,9.983174E-1,6.6432357E-1,3.33352E-1,9.999939E-1,3.3326027E-1,3.3334255E-1,1.28637375E-2,-5.9359944E-3,-2.6598813E-3,-5.5434243E-3,-1.2494901E-2,3.3332157E-1,6.671946E-1,3.3234417E-1,-8.910268E-3,1.5354101E-3,-2.6873404E-3,-7.787049E-5,6.875283E-4,-2.7970285E-3,-7.2426475E-3,9.9999756E-1,9.99998E-1,3.8509846E-3,1.7942087E-3,3.28535E-2,1.4990926E-3,-2.3911588E-3,-5.8968603E-3,3.2439843E-2,9.606203E-3,-1.3436385E-3,6.0743704E-3,7.5963396E-3,3.8764346E-3,3.3329883E-1,6.669043E-1,3.3331972E-1,9.99944E-1,1.3925553E-3,-2.462595E-3,1.6551179E-1,3.3459315E-1,6.537785E-3,2.7704928E-3,-8.671656E-3,3.2264396E-7,-5.2003395E-3,-1.0657746E-3,3.3133507E-1,6.405487E-3,3.35477E-1,8.666431E-1,3.347843E-1,3.322063E-1,-9.509389E-3,1.6576542E-1,3.3261386E-1,3.3455926E-1,-9.649567E-3,6.0421587E-3,6.671E-1,-2.7004636E-3,6.667557E-1,3.3307263E-1,9.999914E-1,2.6667202E-3,-6.420175E-3,-1.2668043E-2,-1.0450276E-2,6.671946E-1,-6.992564E-4,-4.4958144E-3,8.7668495E-3,1.4188503E-3,1.2571969E-3,5.2499757E-3,-2.1363902E-3,4.176808E-3,3.4330897E-3,9.348205E-3,3.2971503E-4,6.2949397E-3,6.527737E-4,4.4659837E-3,4.651229E-4,3.1871274E-3,-3.2506126E-3,3.965765E-3,-1.9627437E-3,3.121361E-3,7.255004E-4,-9.96845E-3,7.63402E-3,4.635983E-5,-5.4702065E-3,1.6014461E-3,7.5954697E-3,-1.5928459E-3,5.225282E-3,-3.9749183E-3,5.7111825E-3,-1.6041797E-3,9.389215E-3,3.0023442E-3,-4.7745565E-3,-1.1878422E-2,-9.008978E-3,-1.4478104E-2,-1.1872937E-3,-9.537848E-3,-8.990912E-3,-3.0790998E-3,-4.2692865E-3,-8.4021466E-4],"split_indices":[3,3,3,1,3,1,2,3,1,3,2,2,2,1,3,1,2,0,1,1,1,1,2,1,1,2,1,2,2,0,0,0,3,1,0,1,1,2,1,1,1,0,0,1,1,3,1,3,2,2,2,3,2,0,0,2,1,0,0,0,0,1,1,1,2,2,3,2,2,2,3,3,1,1,0,1,0,0,2,2,0,3,0,2,2,2,0,1,1,1,0,3,3,0,3,1,0,0,0,0,2,0,0,1,0,2,2,1,3,2,2,1,3,2,3,0,0,0,0,2,2,0,0,2,0,0,0,0,1,1,0,0,0,1,0,2,0,1,0,0,2,0,2,0,0,0,2,0,0,0,0,0,0,0,0,3,2,2,0,0,0,3,3,2,0,2,1,1,2,3,0,3,0,1,2,2,1,1,3,1,0,0,0,0,0,1,3,2,0,0,0,0,0,0,0,1,1,0,0,3,0,0,0,3,0,0,0,0,0,1,2,1,1,0,0,2,2,0,0,0,1,0,0,3,0,2,1,3,3,0,2,3,3,0,0,3,0,3,2,1,0,0,0,0,3,0,0,0,0,0,0,0,0,0,0,0,0,0,0,0,0,0,0,0,0,0,0,0,0,0,0,0,0,0,0,0,0,0,0,0,0,0,0,0,0,0,0,0,0],"split_type":[0,0,0,0,0,0,0,0,0,0,0,0,0,0,0,0,0,0,0,0,0,0,0,0,0,0,0,0,0,0,0,0,0,0,0,0,0,0,0,0,0,0,0,0,0,0,0,0,0,0,0,0,0,0,0,0,0,0,0,0,0,0,0,0,0,0,0,0,0,0,0,0,0,0,0,0,0,0,0,0,0,0,0,0,0,0,0,0,0,0,0,0,0,0,0,0,0,0,0,0,0,0,0,0,0,0,0,0,0,0,0,0,0,0,0,0,0,0,0,0,0,0,0,0,0,0,0,0,0,0,0,0,0,0,0,0,0,0,0,0,0,0,0,0,0,0,0,0,0,0,0,0,0,0,0,0,0,0,0,0,0,0,0,0,0,0,0,0,0,0,0,0,0,0,0,0,0,0,0,0,0,0,0,0,0,0,0,0,0,0,0,0,0,0,0,0,0,0,0,0,0,0,0,0,0,0,0,0,0,0,0,0,0,0,0,0,0,0,0,0,0,0,0,0,0,0,0,0,0,0,0,0,0,0,0,0,0,0,0,0,0,0,0,0,0,0,0,0,0,0,0,0,0,0,0,0,0,0,0,0,0,0,0,0,0,0,0,0,0,0,0,0,0,0,0,0,0,0,0,0,0,0,0,0,0,0,0,0,0],"sum_hessian":[2.379E3,1.563E3,8.16E2,4.93E2,1.07E3,4.19E2,3.97E2,1.47E2,3.46E2,9.77E2,9.3E1,2.94E2,1.25E2,2.65E2,1.32E2,1.38E2,9E0,6.2E1,2.84E2,3.86E2,5.91E2,1.5E1,7.8E1,3.4E1,2.6E2,6.8E1,5.7E1,1.92E2,7.3E1,4.7E1,8.5E1,1.27E2,1.1E1,6E0,3E0,1.19E2,1.65E2,1.1E2,2.76E2,2E2,3.91E2,7E0,8E0,4.1E1,3.7E1,1.7E1,1.7E1,1.41E2,1.19E2,3E1,3.8E1,1.4E1,4.3E1,5.6E1,1.36E2,1.3E1,6E1,8E0,3E0,3E0,3E0,4E1,7.9E1,2.6E1,1.39E2,7.3E1,3.7E1,1.49E2,1.27E2,1.84E2,1.6E1,1.7E1,3.74E2,1.8E1,2.3E1,2.8E1,9E0,4E0,1.3E1,1.4E1,3E0,1.4E1,1.27E2,7E0,1.12E2,2.6E1,4E0,2.7E1,1.1E1,1E1,4E0,1E1,3.3E1,3E0,1E1,6E0,5.4E1,3.7E1,3E0,1.5E1,6.4E1,1E1,1.6E1,1.2E2,1.9E1,4.4E1,2.9E1,9E0,2.8E1,4E1,1.09E2,1.05E2,2.2E1,4E1,1.44E2,1.3E1,3E0,1.4E1,3E0,2.71E2,1.03E2,6E0,1.2E1,1.6E1,1.2E1,1E1,3E0,5E0,9E0,1E1,4E0,4E0,3E0,7.9E1,3.3E1,2.2E1,4E0,1.7E1,1E1,4E0,7E0,4E0,6E0,4E0,6E0,7E0,2.6E1,5E0,5E0,3E0,3E0,4.4E1,2E1,1E1,1.1E2,3.4E1,1E1,2.6E1,3E0,5E0,4E0,2.2E1,6E0,1.2E1,2.8E1,9.2E1,1.7E1,6E0,9.9E1,1.3E1,9E0,2.7E1,1.3E1,8E0,1.36E2,2.01E2,7E1,1.9E1,8.4E1,9E0,7E0,5E0,4E0,3E0,7E0,1.2E1,6.7E1,1.9E1,3E0,1.4E1,3E0,3E0,4E0,3E0,3E0,1.4E1,1.2E1,3E0,3.1E1,6E0,4E0,3E0,2.3E1,1E1,1.2E1,3E0,3E0,8E0,4E0,6.7E1,2.5E1,1E1,7E0,3E0,3E0,3.6E1,6.3E1,7E0,6E0,9E0,1.8E1,4E0,4E0,9.2E1,4.4E1,1.39E2,6.2E1,4.7E1,2.3E1,4E0,1.5E1,4.3E1,4.1E1,5E0,4E0,7E0,5E0,4.4E1,2.3E1,1.5E1,4E0,5E0,9E0,5E0,7E0,3E0,3E0,4E0,6E0,3E0,6.4E1,6E0,1.9E1,4E0,6E0,3E0,4E0,3E0,3.3E1,2.2E1,4.1E1,8E0,1E1,4E0,8.8E1,1.23E2,1.6E1,4.5E1,1.7E1,4.1E1,6E0,7E0,1.6E1,3E0,1.2E1,2.5E1,1.8E1,3.4E1,7E0,4E0,3E0,2.8E1,1.6E1,5E0,1.8E1,5E0,1E1,4E0,3E0],"tree_param":{"num_deleted":"0","num_feature":"4","num_nodes":"289","size_leaf_vector":"1"}},{"base_weights":[2.0705536E-3,2.857243E-1,-7.314864E-2,1.8615064E-1,3.2491902E-1,8.307607E-4,-1.6635834E-1,1.0370979E-2,1.5585011E-1,5.6165045E-1,2.7406386E-1,4.2382646E-2,-2.6696213E-2,-2.4141538E-1,-9.9433936E-2,1.3593298E-1,1.8255155E-1,1.1094638E-2,2.9062817E-2,3.862598E-1,2.2681189E-1,-1.2377068E-2,7.990899E-3,-4.2664386E-2,1.4471678E-1,-2.0750819E-1,-3.354514E-1,2.2998204E-2,-1.1083151E-1,7.1407384E-3,2.9598773E-3,9.702295E-3,5.0031925E-3,3.2986534E-1,2.904898E-2,2.6001716E-1,1.5042436E-1,-5.138734E-2,2.235164E-2,-1.6345045E-1,-2.5427187E-2,-6.2652878E-3,1.6305743E-1,-1.6105834E-1,-1.076912E-2,-2.3018712E-1,-1.9350229E-2,-1.5154743E-1,-2.9756052E-2,1.1868549E-2,1.8696038E-2,7.224372E-3,3.2500184E-1,7.7047097E-3,3.7416797E-3,-9.7925544E-2,6.674175E-3,5.422119E-2,-4.999993E-2,-2.0446575E-1,-4.151042E-3,6.782419E-2,-5.357651E-2,1.7589262E-1,-1.5864611E-3,-9.524019E-2,-1.8983357E-1,-2.4637727E-1,-1.9535825E-3,-2.0141174E-1,-1.1421215E-1,-9.729534E-2,1.716479E-2,4.764634E-2,2.6207945E-1,-7.8589596E-2,-1.8409777E-1,8.909548E-2,-2.4611076E-2,3.548634E-2,8.549679E-2,4.324961E-2,-7.969423E-2,-1.188648E-2,-7.1466626E-3,-2.3150626E-1,8.878653E-2,-3.5953585E-2,-1.1933147E-1,2.2229737E-1,7.1636993E-3,-3.1076053E-3,-1.0887782E-1,-1.0266525E-2,-4.5520654E-3,-1.5585052E-2,-2.0889331E-1,-1.5016724E-2,-1.0707027E-1,-9.1847405E-2,-2.2195686E-1,1.700758E-2,-1.2628643E-1,-8.074446E-2,3.7047993E-2,9.913124E-3,2.3666231E-2,-9.506983E-2,7.95968E-3,-1.0544645E-2,-4.9523497E-3,5.480944E-3,1.6599715E-3,-6.286826E-2,4.865934E-2,6.3282646E-2,-2.1649148E-2,4.0502284E-2,1.09073624E-1,6.208943E-3,-1.6148419E-3,-1.04140066E-1,3.645856E-2,-1.5936622E-2,-5.771204E-3,1.5137441E-1,2.2308415E-2,-6.6620596E-2,-1.1460326E-2,1.5507682E-3,-2.4025154E-1,8.176081E-3,1.3766343E-2,-6.7979307E-3,-3.4082101E-3,-2.6132375E-1,-7.136697E-2,6.665653E-2,-1.9346374E-1,-1.05850525E-1,8.94324E-3,-2.4646641E-1,-4.5505404E-3,3.3039503E-2,-1.4925286E-1,8.303937E-4,-1.0646653E-1,1.1486392E-1,-1.3923333E-2,-4.189936E-2,-1.1495556E-1,2.567685E-3,-2.7191944E-3,-1.3066576E-1,-3.336896E-3,7.180882E-3,5.038435E-3,2.1961858E-2,7.56417E-2,4.452247E-2,-5.3381886E-2,5.8128084E-3,-9.000277E-3,1.3171506E-1,7.7116094E-4,-1.2277813E-1,-5.458612E-2,-5.25298E-4,3.715422E-3,1.2277315E-2,2.535217E-2,-1.086928E-2,4.5370407E-2,-1.5583551E-2,-9.224829E-2,4.0088493E-2,-3.713594E-2,-8.730759E-2,8.629962E-2,-3.865311E-3,-2.6597628E-1,-1.7246975E-2,-1.04531E-2,-4.6809795E-3,-1.9645744E-3,1.5599905E-1,-2.0795489E-2,-2.4377578E-1,-1.5119141E-1,-8.963299E-2,-2.2571331E-1,8.246045E-3,-3.3247016E-2,-6.8014236E-3,-2.6255712E-1,6.9336738E-3,-5.3631417E-3,-1.25985E-2,-1.266717E-1,-2.5991667E-2,-1.06966505E-2,-7.3142913E-3,1.6175629E-1,7.191373E-2,-5.772365E-3,-4.022815E-3,1.7885789E-3,-6.695793E-3,-3.4096115E-3,-3.837194E-3,-8.075709E-3,2.300144E-3,-8.597813E-4,-2.2951518E-3,3.1815206E-3,2.7278727E-3,-5.7781115E-5,4.0511363E-3,2.1271463E-3,5.243744E-3,-2.1024325E-3,-5.8419374E-3,-6.958078E-4,2.2107258E-3,-1.906149E-3,7.571516E-3,3.0237203E-3,-4.4549215E-3,-7.0306524E-3,-9.886078E-4,-5.0932015E-3,-2.8122955E-3,3.0561471E-3,4.5759203E-3,-5.1796774E-4,-3.9793774E-3,1.0009055E-3,-1.2017125E-2,-3.2242306E-3,-2.4711671E-3,4.4250297E-3,-3.2075879E-3,1.9452562E-4,7.226416E-3,-6.698813E-3,6.67878E-3,-3.101614E-3,-1.42755285E-2,-4.5834165E-3,1.0030274E-2,1.3893202E-3,4.6479236E-3,-4.464614E-3,-4.688994E-3,-1.3376148E-2,-2.824374E-3,-9.155466E-3,-5.1879873E-3,7.3238154E-4,-5.8252895E-3,-1.2245288E-2,1.9636448E-3,-7.4286186E-3,-8.383722E-3,-1.4672554E-2,-1.5624558E-3,-7.924834E-3,-4.2728307E-3,1.338931E-3,5.875561E-3,-4.4656126E-3,2.429327E-3,9.276322E-3,-1.371142E-3,7.596133E-3],"categories":[],"categories_nodes":[],"categories_segments":[],"categories_sizes":[],"default_left":[0,0,0,0,0,0,0,0,0,0,0,0,0,0,0,0,0,0,0,0,0,0,0,0,0,0,0,0,0,0,0,0,0,0,0,0,0,0,0,0,0,0,0,0,0,0,0,0,0,0,0,0,0,0,0,0,0,0,0,0,0,0,0,0,0,0,0,0,0,0,0,0,0,0,0,0,0,0,0,0,0,0,0,0,0,0,0,0,0,0,0,0,0,0,0,0,0,0,0,0,0,0,0,0,0,0,0,0,0,0,0,0,0,0,0,0,0,0,0,0,0,0,0,0,0,0,0,0,0,0,0,0,0,0,0,0,0,0,0,0,0,0,0,0,0,0,0,0,0,0,0,0,0,0,0,0,0,0,0,0,0,0,0,0,0,0,0,0,0,0,0,0,0,0,0,0,0,0,0,0,0,0,0,0,0,0,0,0,0,0,0,0,0,0,0,0,0,0,0,0,0,0,0,0,0,0,0,0,0,0,0,0,0,0,0,0,0,0,0,0,0,0,0,0,0,0,0,0,0,0,0,0,0,0,0,0,0,0,0,0,0,0,0,0,0,0,0,0,0,0,0,0,0,0,0,0,0,0,0,0,0,0,0,0,0,0,0,0,0,0,0,0,0,0,0],"id":2,"left_children":[1,3,5,7,9,11,13,-1,15,17,19,21,23,25,27,29,31,-1,-1,33,35,37,-1,39,41,43,45,-1,47,-1,-1,-1,-1,49,-1,51,53,55,57,59,61,-1,63,65,-1,67,-1,69,71,-1,-1,-1,73,-1,-1,75,77,79,81,83,-1,85,87,89,-1,91,93,95,-1,97,99,101,103,-1,105,107,109,111,113,115,117,119,121,-1,-1,123,125,127,129,131,-1,-1,133,-1,-1,-1,135,-1,137,139,141,-1,143,145,147,-1,-1,149,151,-1,-1,-1,-1,153,155,157,159,161,163,-1,-1,165,167,-1,-1,169,171,173,175,177,179,-1,-1,-1,-1,181,183,185,187,189,191,193,-1,195,197,-1,199,201,203,205,207,-1,-1,209,211,-1,213,215,217,219,221,-1,223,225,-1,227,229,-1,-1,231,-1,-1,233,235,237,239,241,243,245,-1,247,-1,-1,-1,-1,249,251,253,255,257,259,-1,261,-1,263,-1,-1,-1,265,267,-1,269,271,273,-1,-1,-1,-1,-1,-1,-1,-1,-1,-1,-1,-1,-1,-1,-1,-1,-1,-1,-1,-1,-1,-1,-1,-1,-1,-1,-1,-1,-1,-1,-1,-1,-1,-1,-1,-1,-1,-1,-1,-1,-1,-1,-1,-1,-1,-1,-1,-1,-1,-1,-1,-1,-1,-1,-1,-1,-1,-1,-1,-1,-1,-1,-1,-1,-1,-1,-1,-1,-1,-1,-1],"loss_changes":[5.0694393E1,1.883091E0,1.2950071E1,5.9831142E-2,4.131958E0,1.1998314E0,4.1502304E0,0E0,8.689761E-3,2.8402138E-1,1.4763279E0,2.6900206E0,1.7333175E0,1.1770916E0,2.8626962E0,1.2668729E-2,3.3383965E-3,0E0,0E0,7.527313E-1,4.9354458E-1,3.886146E-1,0E0,1.1992476E0,2.878611E-1,7.1380615E-2,4.644413E-1,0E0,1.4248505E0,0E0,0E0,0E0,0E0,1.9240808E-1,0E0,1.0416517E0,6.7774057E-3,3.6543414E-1,3.5319448E-1,2.2054195E-1,1.3344901E0,0E0,1.330874E-1,6.904113E-2,0E0,1.0176456E-1,0E0,5.131655E-1,4.6434408E-1,0E0,0E0,0E0,3.3852262E0,0E0,0E0,1.1049843E-1,1.5948558E-1,5.907607E-2,1.3358876E-1,6.2220454E-2,0E0,7.6096517E-1,4.4763958E-1,4.0806055E-2,0E0,4.52891E-4,2.8766632E-2,1.569128E-2,0E0,1.10641E0,3.8203096E-1,8.038805E-1,1.7235865E-1,0E0,1.0520444E0,9.061694E-2,8.737981E-3,1.5862733E-2,1.2919953E-1,1.0936457E-1,3.6954552E-2,7.7377595E-2,1.060171E-1,0E0,0E0,4.421383E-2,4.584636E-1,2.3133728E-1,1.1989739E0,1.1081457E-2,0E0,0E0,1.7580688E-3,0E0,0E0,0E0,1.5440369E-1,0E0,9.734628E-1,1.9854057E-1,6.7433E-2,0E0,2.1350259E-1,3.932973E-2,2.911451E-1,0E0,0E0,5.1222116E-2,3.2551534E-2,0E0,0E0,0E0,0E0,1.20646305E-1,6.555107E-2,2.1830335E-2,5.0672248E-2,5.7296503E-2,5.0978065E-2,0E0,0E0,2.100572E-2,1.3223893E-2,0E0,0E0,2.8137093E0,3.1389308E-1,1.7775321E-1,2.3046245E-1,3.2382166E-1,1.5129924E-1,0E0,0E0,0E0,0E0,2.1746159E-3,2.0316541E-3,1.7513412E-1,5.4595828E-2,2.1886575E-1,1.2393641E-1,5.1561594E-3,0E0,1.3344006E-1,8.405626E-2,0E0,9.821972E-2,1.6733071E-1,4.004556E-1,5.0794102E-2,2.456057E-2,0E0,0E0,1.0892466E-2,1.241542E-2,0E0,3.8737968E-2,9.105384E-3,2.7867407E-3,4.6208046E-2,3.844399E-2,0E0,1.7183173E-2,1.893285E-2,0E0,8.5771084E-5,1.4445243E-2,0E0,0E0,1.4401442E-1,0E0,0E0,1.3211074E-1,1.0868967E-1,3.58661E-1,2.5571448E-1,1.2881969E-1,2.4657229E-1,1.6256183E-1,0E0,9.300208E-2,0E0,0E0,0E0,0E0,5.7336092E-2,1.0180185E-1,3.9027333E-2,6.824815E-2,1.63566E-1,8.1044436E-4,0E0,1.3128562E-1,0E0,6.490469E-3,0E0,0E0,0E0,1.2563044E-1,2.7392266E-2,0E0,1.0261412E-1,4.7477186E-2,2.0286147E-1,0E0,0E0,0E0,0E0,0E0,0E0,0E0,0E0,0E0,0E0,0E0,0E0,0E0,0E0,0E0,0E0,0E0,0E0,0E0,0E0,0E0,0E0,0E0,0E0,0E0,0E0,0E0,0E0,0E0,0E0,0E0,0E0,0E0,0E0,0E0,0E0,0E0,0E0,0E0,0E0,0E0,0E0,0E0,0E0,0E0,0E0,0E0,0E0,0E0,0E0,0E0,0E0,0E0,0E0,0E0,0E0,0E0,0E0,0E0,0E0,0E0,0E0,0E0,0E0,0E0,0E0,0E0,0E0,0E0,0E0,0E0],"parents":[2147483647,0,0,1,1,2,2,3,3,4,4,5,5,6,6,8,8,9,9,10,10,11,11,12,12,13,13,14,14,15,15,16,16,19,19,20,20,21,21,23,23,24,24,25,25,26,26,28,28,33,33,35,35,36,36,37,37,38,38,39,39,40,40,42,42,43,43,45,45,47,47,48,48,52,52,55,55,56,56,57,57,58,58,59,59,61,61,62,62,63,63,65,65,66,66,67,67,69,69,70,70,71,71,72,72,74,74,75,75,76,76,77,77,78,78,79,79,80,80,81,81,82,82,85,85,86,86,87,87,88,88,89,89,92,92,96,96,98,98,99,99,100,100,102,102,103,103,104,104,107,107,108,108,113,113,114,114,115,115,116,116,117,117,118,118,121,121,122,122,125,125,126,126,127,127,128,128,129,129,130,130,135,135,136,136,137,137,138,138,139,139,140,140,141,141,143,143,144,144,146,146,147,147,148,148,149,149,150,150,153,153,154,154,156,156,157,157,158,158,159,159,160,160,162,162,163,163,165,165,166,166,169,169,172,172,173,173,174,174,175,175,176,176,177,177,178,178,180,180,185,185,186,186,187,187,188,188,189,189,190,190,192,192,194,194,198,198,199,199,201,201,202,202,203,203],"right_children":[2,4,6,8,10,12,14,-1,16,18,20,22,24,26,28,30,32,-1,-1,34,36,38,-1,40,42,44,46,-1,48,-1,-1,-1,-1,50,-1,52,54,56,58,60,62,-1,64,66,-1,68,-1,70,72,-1,-1,-1,74,-1,-1,76,78,80,82,84,-1,86,88,90,-1,92,94,96,-1,98,100,102,104,-1,106,108,110,112,114,116,118,120,122,-1,-1,124,126,128,130,132,-1,-1,134,-1,-1,-1,136,-1,138,140,142,-1,144,146,148,-1,-1,150,152,-1,-1,-1,-1,154,156,158,160,162,164,-1,-1,166,168,-1,-1,170,172,174,176,178,180,-1,-1,-1,-1,182,184,186,188,190,192,194,-1,196,198,-1,200,202,204,206,208,-1,-1,210,212,-1,214,216,218,220,222,-1,224,226,-1,228,230,-1,-1,232,-1,-1,234,236,238,240,242,244,246,-1,248,-1,-1,-1,-1,250,252,254,256,258,260,-1,262,-1,264,-1,-1,-1,266,268,-1,270,272,274,-1,-1,-1,-1,-1,-1,-1,-1,-1,-1,-1,-1,-1,-1,-1,-1,-1,-1,-1,-1,-1,-1,-1,-1,-1,-1,-1,-1,-1,-1,-1,-1,-1,-1,-1,-1,-1,-1,-1,-1,-1,-1,-1,-1,-1,-1,-1,-1,-1,-1,-1,-1,-1,-1,-1,-1,-1,-1,-1,-1,-1,-1,-1,-1,-1,-1,-1,-1,-1,-1,-1],"split_conditions":[2.2102655E-3,5.6901517E-5,6.4395094E-1,3.474932E-1,3.3328617E-1,4.0173013E-2,6.973579E-1,1.0370979E-2,9.92343E-1,6.664351E-2,1.2603983E-1,3.3340064E-1,3.582135E-1,8.3255875E-1,8.069959E-1,9.871083E-1,1.1160686E-5,1.1094638E-2,2.9062817E-2,1.3904533E-2,9.7749054E-1,3.332964E-1,7.990899E-3,2.5045255E-1,2.5639005E-5,1.6629072E-1,4.249983E-5,2.2998204E-2,3.3335337E-1,7.1407384E-3,2.9598773E-3,9.702295E-3,5.0031925E-3,9.9997526E-1,2.904898E-2,3.582135E-1,1.5795662E-3,6.6596645E-1,6.6709226E-1,5.999553E-1,1.6784255E-1,-6.2652878E-3,7.333593E-1,6.5849185E-1,-1.076912E-2,2.7011887E-5,-1.9350229E-2,3.343952E-1,3.35477E-1,1.1868549E-2,1.8696038E-2,7.224372E-3,5.990744E-1,7.7047097E-3,3.7416797E-3,5.6901517E-5,9.98007E-1,3.3428124E-1,3.333297E-1,1.8466152E-1,-4.151042E-3,1.651347E-1,9.990601E-1,3.3334374E-1,-1.5864611E-3,6.522978E-1,9.999953E-1,6.6330105E-1,-1.9535825E-3,3.44818E-5,3.3333424E-1,9.7749054E-1,9.860966E-1,4.764634E-2,6.973579E-1,1.0011442E-2,2.6668918E-1,6.676904E-1,3.7136113E-3,3.3273908E-1,3.3332932E-1,9.989284E-1,7.02178E-3,-1.188648E-2,-7.1466626E-3,2.5639005E-5,1.9998026E-1,3.2843706E-1,3.3330926E-1,5.62788E-1,7.1636993E-3,-3.1076053E-3,6.5562063E-1,-1.0266525E-2,-4.5520654E-3,-1.5585052E-2,5.5973646E-6,-1.5016724E-2,3.3133417E-1,3.333258E-1,3.3334732E-1,1.700758E-2,1.6571394E-1,6.6777146E-1,9.9861205E-1,9.913124E-3,2.3666231E-2,1.6698602E-1,1.5277735E-2,-1.0544645E-2,-4.9523497E-3,5.480944E-3,1.6599715E-3,9.9969256E-1,5.4197786E-3,3.3332932E-1,3.3332694E-1,3.33322E-1,3.333545E-1,6.208943E-3,-1.6148419E-3,9.998481E-1,3.3334625E-1,-1.5936622E-2,-5.771204E-3,3.9169747E-5,3.3331087E-1,3.3329883E-1,3.3437705E-1,3.2264396E-7,3.2531804E-1,8.176081E-3,1.3766343E-2,-6.7979307E-3,-3.4082101E-3,9.9966586E-1,6.684522E-1,3.3332694E-1,3.3332783E-1,3.3332014E-1,3.3332717E-1,6.65357E-1,-4.5505404E-3,9.992217E-1,1.6641998E-1,8.303937E-4,9.999985E-1,9.999852E-1,9.9999005E-1,1.6653039E-1,3.3335972E-1,2.567685E-3,-2.7191944E-3,9.988629E-1,9.9997765E-1,7.180882E-3,1.1491216E-2,1.6638392E-1,3.3336198E-1,3.7136113E-3,3.3333156E-1,5.8128084E-3,6.660426E-1,6.664738E-1,7.7116094E-4,6.68991E-1,3.0839344E-4,-5.25298E-4,3.715422E-3,3.3140534E-1,2.535217E-2,-1.086928E-2,3.3336198E-1,1.225381E-5,3.3332533E-1,3.44818E-5,3.33361E-1,9.9954975E-1,3.2023632E-5,-3.865311E-3,3.4931237E-1,-1.7246975E-2,-1.04531E-2,-4.6809795E-3,-1.9645744E-3,1.6750401E-1,9.887201E-1,5.6901517E-5,3.3333105E-1,3.3330807E-1,6.6806483E-1,8.246045E-3,9.9936897E-1,-6.8014236E-3,9.7749054E-1,6.9336738E-3,-5.3631417E-3,-1.25985E-2,1.6690052E-1,9.7749054E-1,-1.06966505E-2,3.3335757E-1,6.664738E-1,3.3340064E-1,-5.772365E-3,-4.022815E-3,1.7885789E-3,-6.695793E-3,-3.4096115E-3,-3.837194E-3,-8.075709E-3,2.300144E-3,-8.597813E-4,-2.2951518E-3,3.1815206E-3,2.7278727E-3,-5.7781115E-5,4.0511363E-3,2.1271463E-3,5.243744E-3,-2.1024325E-3,-5.8419374E-3,-6.958078E-4,2.2107258E-3,-1.906149E-3,7.571516E-3,3.0237203E-3,-4.4549215E-3,-7.0306524E-3,-9.886078E-4,-5.0932015E-3,-2.8122955E-3,3.0561471E-3,4.5759203E-3,-5.1796774E-4,-3.9793774E-3,1.0009055E-3,-1.2017125E-2,-3.2242306E-3,-2.4711671E-3,4.4250297E-3,-3.2075879E-3,1.9452562E-4,7.226416E-3,-6.698813E-3,6.67878E-3,-3.101614E-3,-1.42755285E-2,-4.5834165E-3,1.0030274E-2,1.3893202E-3,4.6479236E-3,-4.464614E-3,-4.688994E-3,-1.3376148E-2,-2.824374E-3,-9.155466E-3,-5.1879873E-3,7.3238154E-4,-5.8252895E-3,-1.2245288E-2,1.9636448E-3,-7.4286186E-3,-8.383722E-3,-1.4672554E-2,-1.5624558E-3,-7.924834E-3,-4.2728307E-3,1.338931E-3,5.875561E-3,-4.4656126E-3,2.429327E-3,9.276322E-3,-1.371142E-3,7.596133E-3],"split_indices":[2,1,0,0,1,0,0,0,0,1,0,1,0,2,0,0,1,0,0,0,0,1,0,0,1,2,1,0,1,0,0,0,0,1,0,0,2,2,2,1,2,0,1,0,0,1,0,2,2,0,0,0,0,0,0,1,2,2,1,0,0,2,2,1,0,0,1,0,0,1,1,0,0,0,0,0,1,2,0,2,1,2,0,0,0,1,1,0,1,0,0,0,0,0,0,0,1,0,2,1,1,0,2,2,0,0,0,2,0,0,0,0,0,2,0,1,1,1,1,0,0,2,1,0,0,1,1,1,0,1,0,0,0,0,0,2,0,1,1,1,1,2,0,0,2,0,1,1,1,2,2,0,0,2,2,0,0,2,1,0,1,0,2,2,0,2,0,0,0,0,0,0,1,1,2,1,1,2,1,0,0,0,0,0,0,2,0,1,1,1,2,0,2,0,0,0,0,0,2,0,0,1,2,1,0,0,0,0,0,0,0,0,0,0,0,0,0,0,0,0,0,0,0,0,0,0,0,0,0,0,0,0,0,0,0,0,0,0,0,0,0,0,0,0,0,0,0,0,0,0,0,0,0,0,0,0,0,0,0,0,0,0,0,0,0,0,0,0,0,0,0,0,0,0,0],"split_type":[0,0,0,0,0,0,0,0,0,0,0,0,0,0,0,0,0,0,0,0,0,0,0,0,0,0,0,0,0,0,0,0,0,0,0,0,0,0,0,0,0,0,0,0,0,0,0,0,0,0,0,0,0,0,0,0,0,0,0,0,0,0,0,0,0,0,0,0,0,0,0,0,0,0,0,0,0,0,0,0,0,0,0,0,0,0,0,0,0,0,0,0,0,0,0,0,0,0,0,0,0,0,0,0,0,0,0,0,0,0,0,0,0,0,0,0,0,0,0,0,0,0,0,0,0,0,0,0,0,0,0,0,0,0,0,0,0,0,0,0,0,0,0,0,0,0,0,0,0,0,0,0,0,0,0,0,0,0,0,0,0,0,0,0,0,0,0,0,0,0,0,0,0,0,0,0,0,0,0,0,0,0,0,0,0,0,0,0,0,0,0,0,0,0,0,0,0,0,0,0,0,0,0,0,0,0,0,0,0,0,0,0,0,0,0,0,0,0,0,0,0,0,0,0,0,0,0,0,0,0,0,0,0,0,0,0,0,0,0,0,0,0,0,0,0,0,0,0,0,0,0,0,0,0,0,0,0,0,0,0,0,0,0,0,0,0,0,0,0,0,0,0,0,0,0],"sum_hessian":[2.374E3,4.97E2,1.877E3,1.42E2,3.55E2,1.047E3,8.3E2,8E1,6.2E1,6.1E1,2.94E2,4.17E2,6.3E2,3.9E2,4.4E2,3.9E1,2.3E1,4E0,5.7E1,8.5E1,2.09E2,2.85E2,1.32E2,5.77E2,5.3E1,2.89E2,1.01E2,8E0,4.32E2,3.5E1,4E0,1.9E1,4E0,6.8E1,1.7E1,1.44E2,6.5E1,1.34E2,1.51E2,7.1E1,5.06E2,3E0,5E1,4.5E1,2.44E2,3.5E1,6.6E1,2.87E2,1.45E2,2.4E1,4.4E1,5.3E1,9.1E1,6.1E1,4E0,7.4E1,6E1,1.05E2,4.6E1,4.6E1,2.5E1,1.17E2,3.89E2,4.7E1,3E0,1.5E1,3E1,3.2E1,3E0,1.21E2,1.66E2,5.9E1,8.6E1,7E0,8.4E1,6.2E1,1.2E1,1.6E1,4.4E1,6.7E1,3.8E1,1.1E1,3.5E1,2.8E1,1.8E1,7E0,1.1E2,3.08E2,8.1E1,1.7E1,3E1,6E0,9E0,2.5E1,5E0,9E0,2.3E1,5.8E1,6.3E1,1.39E2,2.7E1,3E0,5.6E1,1.4E1,7.2E1,6.6E1,1.8E1,5.2E1,1E1,8E0,4E0,1.1E1,5E0,2.9E1,1.5E1,4.5E1,2.2E1,1.4E1,2.4E1,5E0,6E0,2.9E1,6E0,3E0,4E0,5.6E1,5.4E1,1.36E2,1.72E2,4.1E1,4E1,1E1,7E0,4E0,5E0,1.6E1,7E0,2.1E1,4.2E1,1.22E2,1.7E1,2.2E1,5E0,7E0,4.9E1,3E0,1.1E1,2.8E1,4.4E1,1.5E1,3.7E1,6E0,4E0,1.3E1,1.6E1,4E0,1.1E1,1.1E1,3.4E1,7E0,1.5E1,5E0,9E0,1.9E1,5E0,2E1,9E0,3E0,3E0,4.1E1,1.5E1,4E0,5E1,4.6E1,9E1,5.7E1,1.15E2,2E1,2.1E1,6E0,3.4E1,4E0,1.2E1,3E0,4E0,1E1,1.1E1,1.7E1,2.5E1,1.09E2,1.3E1,3E0,1.4E1,4E0,1.8E1,4E0,3E0,7E0,4.2E1,7E0,4E0,8E0,2E1,2.4E1,2E1,1E1,5E0,2.5E1,1.2E1,6E0,7E0,3E0,1.3E1,6E0,5E0,4E0,7E0,2.8E1,6E0,4E0,3E0,5E0,1E1,3E0,6E0,1.4E1,5E0,9E0,1.1E1,6E0,3E0,1.7E1,2.4E1,2.7E1,2.3E1,1.6E1,3E1,1.3E1,7.7E1,2E1,3.7E1,6.9E1,4.6E1,3E0,1.7E1,1.6E1,5E0,3E1,4E0,7E0,3E0,4E0,7E0,3E0,1.4E1,7E0,1.8E1,9.6E1,1.3E1,3E0,1E1,9E0,5E0,6E0,1.2E1,1.1E1,3.1E1,3E0,4E0,3E0,5E0,4E0,1.6E1,1.1E1,1.3E1],"tree_param":{"num_deleted":"0","num_feature":"4","num_nodes":"275","size_leaf_vector":"1"}},{"base_weights":[-8.393781E-4,1.22873634E-1,-2.4311598E-1,2.6640186E-1,5.2927792E-2,-7.8041844E-2,-3.1204796E-1,2.930112E-1,1.4774285E-1,9.040272E-2,-8.258011E-3,-4.8699647E-2,-1.1339792E-1,-2.3703757E-1,-3.6844108E-1,2.688112E-1,2.7818546E-2,3.371127E-3,1.4956957E-1,4.929261E-2,1.3261256E-1,-1.0137929E-1,5.6156117E-2,-5.6148358E-2,1.5853972E-3,-8.505764E-2,-1.6411114E-1,-7.979909E-2,-2.9071212E-1,-2.0469734E-2,-1.3205932E-2,3.099588E-1,8.573162E-3,8.5385E-3,6.7178244E-3,1.2956603E-1,-1.1098248E-1,2.3243381E-1,8.8007495E-2,-3.6529515E-2,-1.657942E-1,4.051811E-2,2.5522888E-2,-6.671567E-2,-1.791227E-2,-5.4254048E-2,-1.0439862E-2,-5.699019E-3,-9.015664E-3,-1.743353E-2,-7.5988905E-3,-2.4656945E-1,-1.6704278E-2,2.6001984E-1,6.241602E-1,7.441263E-2,1.8078366E-1,-1.1869813E-2,-8.63801E-2,1.0646567E-1,2.8669876E-1,6.326272E-2,2.5003907E-1,-1.593655E-2,-4.9291655E-2,-1.4074789E-1,-1.4587938E-2,-1.01655675E-2,5.448804E-2,-1.1095606E-1,-4.4925254E-2,8.071025E-3,-8.5376546E-2,-6.021288E-2,2.1366559E-3,1.354383E-2,-5.7001717E-2,-6.5168575E-3,-1.4508136E-2,3.2914075E-1,1.6231859E-1,5.165818E-1,4.1573722E-2,8.551522E-2,-1.5861947E-2,7.690032E-3,9.965193E-3,-9.448307E-2,2.613104E-3,6.297617E-2,6.839608E-3,3.2507926E-1,2.1751808E-1,1.4048591E-1,5.485336E-2,3.2239124E-1,7.2161458E-3,-4.1913304E-2,3.5180274E-2,-5.480725E-2,-1.6728061E-3,-2.8580003E-3,-1.4355375E-1,-1.5348373E-2,1.24461494E-1,-1.4305606E-1,7.074149E-3,-2.3144212E-2,-6.2086554E-3,-1.02270655E-1,-6.4183414E-2,-1.6916195E-2,-7.710865E-2,-5.813703E-3,2.3637861E-2,-9.03554E-2,3.2824092E-3,1.3502545E-2,2.877839E-2,7.697919E-3,1.6328204E-2,2.8557172E-2,1.833563E-2,6.831524E-2,1.17845036E-1,5.366891E-3,-6.355566E-2,-3.6964953E-2,-1.1658165E-1,8.073257E-3,1.244925E-3,2.8133827E-1,2.0731594E-2,7.4583897E-3,1.297289E-2,7.025267E-2,1.053585E-2,7.627461E-2,4.002931E-3,1.752491E-2,9.24175E-3,-2.2963136E-3,-5.685069E-4,2.7849956E-3,-9.891987E-4,-1.5345818E-3,-2.8400153E-3,-1.6627754E-1,-1.2937926E-1,6.830843E-2,-1.1838818E-1,4.178597E-2,1.8581523E-1,-6.1105095E-2,-1.6746329E-1,-1.5188372E-2,-5.8403076E-3,-6.040346E-3,-2.213227E-3,-4.2465746E-2,-4.8501156E-3,-2.5906407E-3,4.0337946E-2,-9.282191E-2,-5.4856E-2,-1.2390017E-4,-3.659761E-4,3.0483121E-2,-5.480349E-5,3.6090612E-4,-1.3452342E-1,8.7046996E-2,-9.068394E-3,1.5186357E-1,6.6898555E-2,-6.1264387E-3,-1.9093901E-4,-4.325007E-3,7.605293E-4,-1.5932472E-1,-6.618823E-2,1.8200675E-2,2.4362868E-1,9.302029E-2,3.5771355E-4,3.59074E-2,9.55713E-2,1.1765721E-1,-3.0450756E-2,-6.11124E-3,-1.0161187E-2,-6.9332616E-3,-7.476455E-2,9.173731E-3,-1.2287073E-2,-1.1010173E-2,-6.555253E-2,7.0507936E-2,-4.3175474E-2,1.072021E-1,1.0831259E-2,3.6273958E-4,-6.563934E-3,-9.10929E-3,-2.967308E-3,-2.7591158E-2,3.7181884E-2,-1.8863082E-4,-4.4944505E-3,2.497226E-3,1.0323443E-3,-1.5455157E-3,-5.0485283E-3,-6.658145E-2,-9.1769744E-4,2.1420792E-3,2.04935E-2,-9.447037E-3,-9.633288E-4,3.959903E-3,6.555434E-3,4.9741985E-3,1.0572502E-2,5.136496E-3,-1.9850732E-4,-5.6060697E-3,-9.658689E-3,-5.728838E-3,6.6735287E-4,6.604267E-3,1.29292635E-2,1.3887071E-3,6.3306578E-3,3.316825E-3,-5.020299E-4,4.2269025E-3,6.927909E-3,-2.0790466E-3,8.479337E-3,-8.353183E-4,-4.4247084E-3,-1.3003404E-3,-5.4284693E-3,2.130321E-3,-1.5396086E-3,-4.1201995E-3,2.601852E-3,6.392659E-3,2.3754674E-3,-4.7159153E-3,-9.200397E-4,3.2937345E-3,6.7513413E-3,-2.9075264E-3,-7.9287356E-4,2.4614057E-3,3.4027547E-4,-4.55579E-3,-9.3415036E-4,1.6724998E-3,-4.127473E-5],"categories":[],"categories_nodes":[],"categories_segments":[],"categories_sizes":[],"default_left":[0,0,0,0,0,0,0,0,0,0,0,0,0,0,0,0,0,0,0,0,0,0,0,0,0,0,0,0,0,0,0,0,0,0,0,0,0,0,0,0,0,0,0,0,0,0,0,0,0,0,0,0,0,0,0,0,0,0,0,0,0,0,0,0,0,0,0,0,0,0,0,0,0,0,0,0,0,0,0,0,0,0,0,0,0,0,0,0,0,0,0,0,0,0,0,0,0,0,0,0,0,0,0,0,0,0,0,0,0,0,0,0,0,0,0,0,0,0,0,0,0,0,0,0,0,0,0,0,0,0,0,0,0,0,0,0,0,0,0,0,0,0,0,0,0,0,0,0,0,0,0,0,0,0,0,0,0,0,0,0,0,0,0,0,0,0,0,0,0,0,0,0,0,0,0,0,0,0,0,0,0,0,0,0,0,0,0,0,0,0,0,0,0,0,0,0,0,0,0,0,0,0,0,0,0,0,0,0,0,0,0,0,0,0,0,0,0,0,0,0,0,0,0,0,0,0,0,0,0,0,0,0,0,0,0,0,0,0,0,0,0,0,0,0,0,0,0,0,0,0,0,0,0,0,0,0,0,0,0,0,0],"id":3,"left_children":[1,3,5,7,9,11,13,15,17,19,21,23,25,27,29,31,-1,-1,33,35,37,39,41,43,-1,45,47,49,51,-1,-1,53,-1,-1,-1,55,57,59,61,63,65,67,-1,69,71,73,-1,-1,-1,75,-1,77,-1,79,81,83,85,-1,87,89,91,93,95,97,99,101,-1,-1,103,105,107,-1,109,111,-1,113,115,-1,-1,117,119,121,-1,123,125,-1,-1,127,-1,129,-1,131,133,135,137,139,-1,141,143,145,-1,-1,147,149,151,153,-1,155,-1,157,159,161,163,165,167,169,-1,-1,-1,-1,-1,-1,-1,171,173,-1,175,177,179,-1,-1,181,-1,-1,-1,183,-1,185,187,-1,-1,-1,-1,-1,-1,-1,-1,189,191,193,195,197,199,201,203,205,-1,-1,-1,207,-1,-1,209,211,213,-1,-1,215,-1,-1,217,219,-1,221,223,-1,-1,-1,-1,225,227,-1,229,231,-1,233,235,237,239,-1,-1,-1,241,-1,243,-1,245,247,249,251,-1,-1,-1,-1,-1,253,255,-1,-1,-1,-1,-1,-1,257,-1,-1,259,-1,-1,-1,-1,-1,-1,-1,-1,-1,-1,-1,-1,-1,-1,-1,-1,-1,-1,-1,-1,-1,-1,-1,-1,-1,-1,-1,-1,-1,-1,-1,-1,-1,-1,-1,-1,-1,-1,-1,-1,-1,-1,-1,-1],"loss_changes":[7.244408E1,1.6048624E1,9.272198E0,1.611206E0,2.470236E0,2.455343E-1,2.3491821E0,2.5718422E0,4.294634E-3,1.1526113E0,2.4650066E0,8.203736E-2,1.4269888E-1,2.0867271E0,1.2889404E0,1.5210686E0,0E0,0E0,7.695675E-3,4.388762E0,1.4444275E0,6.957289E-1,1.7056794E0,4.850346E-2,0E0,2.631088E-1,1.0312438E-2,2.8994578E-1,2.7374458E-1,0E0,0E0,4.1527023E0,0E0,0E0,0E0,6.277826E-1,3.340428E-1,6.598778E-1,9.023423E-1,2.1553345E-2,2.2395086E-1,8.149601E-1,0E0,8.756086E-2,3.525411E-1,3.6670968E-2,0E0,0E0,0E0,4.4897873E-2,0E0,4.4860792E-1,0E0,1.5605888E0,3.9566898E-1,1.12609744E-1,2.781558E-2,0E0,1.1390895E-1,3.358963E-2,1.15152836E-1,1.2217343E-1,1.8293524E-1,4.6621393E-2,2.708152E-3,8.681059E-3,0E0,0E0,1.0965302E0,2.7144212E-1,1.1104877E-1,0E0,9.547472E-4,3.9661348E-2,0E0,4.240729E-3,7.138488E-2,0E0,0E0,1.8685932E0,8.840847E-2,1.133585E-2,0E0,4.7000587E-2,8.3208025E-2,0E0,0E0,1.1262888E-1,0E0,5.2233223E-2,0E0,5.1784515E-2,4.1561842E-2,7.891515E-2,1.9794363E-1,9.4246864E-4,0E0,2.296891E-3,1.46361245E-2,3.5069883E-5,0E0,0E0,7.119179E-4,9.8214483E-1,5.6035006E-1,4.5772612E-2,0E0,3.7719347E-2,0E0,5.404696E-3,4.4337288E-3,3.605561E-2,8.894607E-3,2.204589E-5,2.4037547E-3,5.699619E-2,0E0,0E0,0E0,0E0,0E0,0E0,0E0,3.2914665E-1,4.7033668E-2,0E0,3.476079E-2,7.109789E-2,1.3161647E-1,0E0,0E0,1.1080742E-2,0E0,0E0,0E0,1.5137114E-2,0E0,9.627432E-2,2.1895225E-1,0E0,0E0,0E0,0E0,0E0,0E0,0E0,0E0,1.2595415E-2,1.3468862E-2,5.870126E-1,2.599184E-1,1.2261693E-1,1.3178945E-1,3.9328866E-2,2.2614837E-2,3.3502743E-2,0E0,0E0,0E0,1.6175473E-2,0E0,0E0,2.9294565E-4,7.977903E-3,6.9100223E-3,0E0,0E0,4.800465E-4,0E0,0E0,5.2807495E-2,1.1404246E-2,0E0,3.8265347E-2,3.8497686E-2,0E0,0E0,0E0,0E0,3.426367E-2,1.24684304E-1,0E0,7.552266E-3,1.4017865E-2,0E0,6.0786784E-2,2.9075146E-2,1.14550695E-1,3.282575E-2,0E0,0E0,0E0,1.2010682E-2,0E0,3.99127E-2,0E0,7.364252E-2,4.272358E-2,1.4736079E-2,1.4103621E-2,0E0,0E0,0E0,0E0,0E0,1.3779415E-2,3.3241864E-3,0E0,0E0,0E0,0E0,0E0,0E0,1.4749888E-2,0E0,0E0,2.2373686E-3,0E0,0E0,0E0,0E0,0E0,0E0,0E0,0E0,0E0,0E0,0E0,0E0,0E0,0E0,0E0,0E0,0E0,0E0,0E0,0E0,0E0,0E0,0E0,0E0,0E0,0E0,0E0,0E0,0E0,0E0,0E0,0E0,0E0,0E0,0E0,0E0,0E0,0E0,0E0,0E0,0E0,0E0,0E0,0E0],"parents":[2147483647,0,0,1,1,2,2,3,3,4,4,5,5,6,6,7,7,8,8,9,9,10,10,11,11,12,12,13,13,14,14,15,15,18,18,19,19,20,20,21,21,22,22,23,23,25,25,26,26,27,27,28,28,31,31,35,35,36,36,37,37,38,38,39,39,40,40,41,41,43,43,44,44,45,45,49,49,51,51,53,53,54,54,55,55,56,56,58,58,59,59,60,60,61,61,62,62,63,63,64,64,65,65,68,68,69,69,70,70,72,72,73,73,75,75,76,76,79,79,80,80,81,81,83,83,84,84,87,87,89,89,91,91,92,92,93,93,94,94,95,95,97,97,98,98,99,99,102,102,103,103,104,104,105,105,107,107,109,109,110,110,111,111,112,112,113,113,114,114,115,115,123,123,124,124,126,126,127,127,128,128,131,131,135,135,137,137,138,138,147,147,148,148,149,149,150,150,151,151,152,152,153,153,154,154,155,155,159,159,162,162,163,163,164,164,167,167,170,170,171,171,173,173,174,174,179,179,180,180,182,182,183,183,185,185,186,186,187,187,188,188,192,192,194,194,196,196,197,197,198,198,199,199,205,205,206,206,213,213,216,216],"right_children":[2,4,6,8,10,12,14,16,18,20,22,24,26,28,30,32,-1,-1,34,36,38,40,42,44,-1,46,48,50,52,-1,-1,54,-1,-1,-1,56,58,60,62,64,66,68,-1,70,72,74,-1,-1,-1,76,-1,78,-1,80,82,84,86,-1,88,90,92,94,96,98,100,102,-1,-1,104,106,108,-1,110,112,-1,114,116,-1,-1,118,120,122,-1,124,126,-1,-1,128,-1,130,-1,132,134,136,138,140,-1,142,144,146,-1,-1,148,150,152,154,-1,156,-1,158,160,162,164,166,168,170,-1,-1,-1,-1,-1,-1,-1,172,174,-1,176,178,180,-1,-1,182,-1,-1,-1,184,-1,186,188,-1,-1,-1,-1,-1,-1,-1,-1,190,192,194,196,198,200,202,204,206,-1,-1,-1,208,-1,-1,210,212,214,-1,-1,216,-1,-1,218,220,-1,222,224,-1,-1,-1,-1,226,228,-1,230,232,-1,234,236,238,240,-1,-1,-1,242,-1,244,-1,246,248,250,252,-1,-1,-1,-1,-1,254,256,-1,-1,-1,-1,-1,-1,258,-1,-1,260,-1,-1,-1,-1,-1,-1,-1,-1,-1,-1,-1,-1,-1,-1,-1,-1,-1,-1,-1,-1,-1,-1,-1,-1,-1,-1,-1,-1,-1,-1,-1,-1,-1,-1,-1,-1,-1,-1,-1,-1,-1,-1,-1,-1],"split_conditions":[6.64311E-1,1.6446115E-1,3.0602586E-1,9.496964E-1,6.4395094E-1,6.661072E-1,6.687834E-1,6.973579E-1,9.860966E-1,3.1494063E-1,6.973579E-1,1.5647407E-1,9.9731505E-1,3.7039962E-1,6.973579E-1,5.990744E-1,2.7818546E-2,3.371127E-3,9.996701E-1,4.0173013E-2,1.6903266E-1,3.3063635E-1,4.9731994E-1,9.99796E-1,1.5853972E-3,2.1874601E-2,6.684886E-1,3.3421788E-1,6.866515E-1,-2.0469734E-2,-1.3205932E-2,3.582135E-1,8.573162E-3,8.5385E-3,6.7178244E-3,3.3468005E-1,1.6775449E-1,3.4871913E-2,4.9918818E-1,3.3399448E-1,8.3255875E-1,9.237049E-1,2.5522888E-2,1.6804478E-1,1.6827768E-1,6.68037E-1,-1.0439862E-2,-5.699019E-3,-9.015664E-3,1.6903266E-1,-7.5988905E-3,3.350177E-1,-1.6704278E-2,2.5045255E-1,4.7075063E-1,1.3120459E-2,3.5442427E-2,-1.1869813E-2,3.0602586E-1,3.344298E-2,3.4211528E-1,3.2551862E-2,3.7039962E-1,3.3263904E-1,6.6841465E-1,6.4977485E-1,-1.4587938E-2,-1.01655675E-2,6.660426E-1,9.9731505E-1,9.9731505E-1,8.071025E-3,3.332573E-1,6.675131E-1,2.1366559E-3,6.6574E-1,6.669533E-1,-6.5168575E-3,-1.4508136E-2,2.4272967E-2,3.5125977E-1,3.9150196E-1,4.1573722E-2,3.33041E-1,3.3229426E-2,7.690032E-3,9.965193E-3,3.360998E-1,2.613104E-3,3.1864382E-2,6.839608E-3,1.6706888E-1,3.3432543E-1,6.661516E-1,8.3451146E-1,5.017135E-1,7.2161458E-3,3.417379E-2,3.4113433E-2,3.347247E-1,-1.6728061E-3,-2.8580003E-3,6.621189E-1,3.3063635E-1,3.3063635E-1,6.6639084E-1,7.074149E-3,1.6159743E-2,-6.2086554E-3,5.1002796E-3,3.360998E-1,6.6678417E-1,6.671E-1,3.2961175E-1,3.3437705E-1,3.2919034E-1,3.2824092E-3,1.3502545E-2,2.877839E-2,7.697919E-3,1.6328204E-2,2.8557172E-2,1.833563E-2,3.3281296E-1,3.3359578E-1,5.366891E-3,3.33041E-1,2.5045255E-1,6.6432357E-1,8.073257E-3,1.244925E-3,3.2227886E-1,2.0731594E-2,7.4583897E-3,1.297289E-2,3.2295395E-2,1.053585E-2,3.3063635E-1,3.476012E-2,1.752491E-2,9.24175E-3,-2.2963136E-3,-5.685069E-4,2.7849956E-3,-9.891987E-4,-1.5345818E-3,-2.8400153E-3,3.3428124E-1,6.6670495E-1,3.3224514E-1,3.3133417E-1,3.4113433E-2,6.684886E-1,3.0839344E-4,1.6724114E-1,7.334325E-3,-5.8403076E-3,-6.040346E-3,-2.213227E-3,3.3931374E-3,-4.8501156E-3,-2.5906407E-3,6.6709226E-1,6.6556054E-1,3.0839344E-4,-1.2390017E-4,-3.659761E-4,3.2489678E-1,-5.480349E-5,3.6090612E-4,3.3978572E-1,3.3357832E-1,-9.068394E-3,3.3309746E-1,3.3335778E-1,-6.1264387E-3,-1.9093901E-4,-4.325007E-3,7.605293E-4,2.3239145E-1,2.5045255E-1,1.8200675E-2,1.6562738E-1,3.3359578E-1,3.5771355E-4,6.652262E-1,3.5015854E-1,3.269584E-1,3.3432543E-1,-6.11124E-3,-1.0161187E-2,-6.9332616E-3,6.672899E-1,9.173731E-3,9.9427307E-1,-1.1010173E-2,3.35477E-1,9.898303E-1,3.4667894E-2,9.982444E-1,1.0831259E-2,3.6273958E-4,-6.563934E-3,-9.10929E-3,-2.967308E-3,6.6614693E-1,1.088097E-2,-1.8863082E-4,-4.4944505E-3,2.497226E-3,1.0323443E-3,-1.5455157E-3,-5.0485283E-3,9.9997765E-1,-9.1769744E-4,2.1420792E-3,6.665974E-1,-9.447037E-3,-9.633288E-4,3.959903E-3,6.555434E-3,4.9741985E-3,1.0572502E-2,5.136496E-3,-1.9850732E-4,-5.6060697E-3,-9.658689E-3,-5.728838E-3,6.6735287E-4,6.604267E-3,1.29292635E-2,1.3887071E-3,6.3306578E-3,3.316825E-3,-5.020299E-4,4.2269025E-3,6.927909E-3,-2.0790466E-3,8.479337E-3,-8.353183E-4,-4.4247084E-3,-1.3003404E-3,-5.4284693E-3,2.130321E-3,-1.5396086E-3,-4.1201995E-3,2.601852E-3,6.392659E-3,2.3754674E-3,-4.7159153E-3,-9.200397E-4,3.2937345E-3,6.7513413E-3,-2.9075264E-3,-7.9287356E-4,2.4614057E-3,3.4027547E-4,-4.55579E-3,-9.3415036E-4,1.6724998E-3,-4.127473E-5],"split_indices":[3,2,0,0,0,2,3,0,0,0,0,0,3,0,0,0,0,0,0,0,2,3,3,3,0,0,2,2,0,0,0,0,0,0,0,2,2,3,3,2,2,0,0,2,2,3,0,0,0,2,0,2,0,0,0,0,3,0,0,3,0,3,0,2,2,0,0,0,2,3,3,0,2,2,0,3,3,0,0,0,0,0,0,2,3,0,0,2,0,3,0,2,3,2,2,3,0,3,3,2,0,0,0,3,3,3,0,0,0,0,2,2,3,0,0,0,0,0,0,0,0,0,0,2,2,0,2,0,2,0,0,0,0,0,0,3,0,3,3,0,0,0,0,0,0,0,0,2,2,2,2,3,2,0,2,0,0,0,0,0,0,0,2,3,0,0,0,0,0,0,0,3,0,3,3,0,0,0,0,0,0,0,2,2,0,2,0,0,3,0,0,0,2,0,0,0,2,0,3,0,0,0,0,0,0,3,0,0,0,0,0,0,0,2,0,0,3,0,0,0,0,0,0,0,0,0,0,0,0,0,0,0,0,0,0,0,0,0,0,0,0,0,0,0,0,0,0,0,0,0,0,0,0,0,0,0,0,0,0,0,0],"split_type":[0,0,0,0,0,0,0,0,0,0,0,0,0,0,0,0,0,0,0,0,0,0,0,0,0,0,0,0,0,0,0,0,0,0,0,0,0,0,0,0,0,0,0,0,0,0,0,0,0,0,0,0,0,0,0,0,0,0,0,0,0,0,0,0,0,0,0,0,0,0,0,0,0,0,0,0,0,0,0,0,0,0,0,0,0,0,0,0,0,0,0,0,0,0,0,0,0,0,0,0,0,0,0,0,0,0,0,0,0,0,0,0,0,0,0,0,0,0,0,0,0,0,0,0,0,0,0,0,0,0,0,0,0,0,0,0,0,0,0,0,0,0,0,0,0,0,0,0,0,0,0,0,0,0,0,0,0,0,0,0,0,0,0,0,0,0,0,0,0,0,0,0,0,0,0,0,0,0,0,0,0,0,0,0,0,0,0,0,0,0,0,0,0,0,0,0,0,0,0,0,0,0,0,0,0,0,0,0,0,0,0,0,0,0,0,0,0,0,0,0,0,0,0,0,0,0,0,0,0,0,0,0,0,0,0,0,0,0,0,0,0,0,0,0,0,0,0,0,0,0,0,0,0,0,0,0,0,0,0,0,0],"sum_hessian":[2.415E3,1.599E3,8.16E2,5.23E2,1.076E3,2.41E2,5.75E2,4.26E2,9.7E1,6.67E2,4.09E2,1.33E2,1.08E2,2.49E2,3.26E2,3.92E2,3.4E1,3E0,9.4E1,3.39E2,3.28E2,1.67E2,2.42E2,1.22E2,1.1E1,7.1E1,3.7E1,6.4E1,1.85E2,2.32E2,9.4E1,2.74E2,1.18E2,3.5E1,5.9E1,2.26E2,1.13E2,1E2,2.28E2,8.4E1,8.3E1,2.35E2,7E0,9.5E1,2.7E1,5.8E1,1.3E1,1.1E1,2.6E1,3.5E1,2.9E1,9.5E1,9E1,2.38E2,3.6E1,1.1E2,1.16E2,1.7E1,9.6E1,3.1E1,6.9E1,1.99E2,2.9E1,3.3E1,5.1E1,7.1E1,1.2E1,1.2E1,2.23E2,3E1,6.5E1,7E0,2E1,5.5E1,3E0,2E1,1.5E1,2.7E1,6.8E1,1.38E2,1E2,2.6E1,1E1,9.8E1,1.2E1,5.1E1,6.5E1,9.1E1,5E0,1.4E1,1.7E1,4.2E1,2.7E1,1.8E1,1.81E2,1.6E1,1.3E1,2.2E1,1.1E1,3.6E1,1.5E1,3E0,6.8E1,1.12E2,1.11E2,2.7E1,3E0,5.2E1,1.3E1,9E0,1.1E1,1.6E1,3.9E1,7E0,1.3E1,1.2E1,3E0,1.13E2,2.5E1,9.7E1,3E0,1.7E1,9E0,6.6E1,3.2E1,3E0,9E0,2.6E1,6.5E1,3E0,1.1E1,3.1E1,1.1E1,1.2E1,1.5E1,1E1,8E0,1.27E2,5.4E1,1.2E1,4E0,1.9E1,3E0,8E0,3E0,4E0,3.2E1,2.2E1,4.6E1,6.2E1,5E1,4.8E1,6.3E1,7E0,2E1,4.9E1,3E0,6E0,3E0,8E0,3E0,1E1,6E0,2.1E1,1.8E1,3E0,4E0,1E1,3E0,4E0,8E0,6.2E1,4E0,1.8E1,1.4E1,4E0,5E0,1.3E1,1.3E1,3.4E1,3.1E1,7E0,2.4E1,7E0,3E0,4.2E1,8.5E1,1.2E1,4.2E1,1.2E1,1E1,3.8E1,8E0,2.5E1,3.7E1,1.6E1,3.4E1,3.6E1,1.2E1,1.9E1,4.4E1,4E0,3E0,1.7E1,3E0,4E1,9E0,5E0,3E0,3E0,3E0,3E0,1.8E1,1.3E1,5E0,3E0,7E0,5E0,3E0,5.5E1,7E0,1.1E1,7E0,9E0,5E0,1.6E1,1.8E1,1.9E1,1.2E1,4E0,2E1,3E0,4E0,2.5E1,1.7E1,7E1,1.5E1,3E0,9E0,3.5E1,7E0,4E0,4E0,9E0,2.8E1,3E1,4E0,9E0,2.7E1,3E0,9E0,9E0,1E1,1E1,3E1,6E0,3E0,8E0,5E0,4E0,3E0],"tree_param":{"num_deleted":"0","num_feature":"4","num_nodes":"261","size_leaf_vector":"1"}},{"base_weights":[-6.74931E-4,1.1777348E-1,-2.2645304E-1,2.5237128E-1,4.927395E-2,-1.6107342E-1,-2.9582316E-1,1.6508052E-1,2.8667265E-1,2.3860002E-2,5.8472455E-2,-1.9195312E-1,-9.36303E-2,-3.05623E-1,-2.6838475E-1,1.6835457E-1,1.2054847E-1,5.221535E-1,2.3853017E-1,-1.1150468E-2,1.1196319E-1,2.71493E-1,4.9181737E-2,-1.2271663E-1,-1.999411E-1,-4.124457E-2,-1.5450807E-1,-1.8212944E-2,-1.4576383E-2,-2.1507272E-1,-1.7570497E-2,8.55384E-3,1.15858E-1,7.355725E-3,4.1117314E-3,1.3482352E-2,2.6949102E-2,1.7554171E-1,2.8619602E-1,-4.2253617E-2,1.4729173E-2,9.837014E-2,1.31607875E-2,2.4600387E-2,2.0227745E-2,9.045089E-2,2.11531E-2,-1.7829521E-1,-5.9919413E-2,-1.0631264E-2,-1.7895024E-1,-8.101231E-2,-8.069629E-3,-6.6047944E-2,-1.8321687E-1,-1.5198675E-1,-2.5651538E-1,6.799962E-3,2.5823177E-3,1.4349034E-1,1.8873724E-1,6.4849234E-1,2.2081813E-1,-1.7606592E-2,-4.8980433E-3,-5.9024062E-2,5.549862E-2,6.0853804E-3,6.131995E-2,1.2209327E-1,-8.49485E-3,1.1435783E-1,6.321323E-2,-1.5823312E-2,6.1709378E-2,-2.841414E-3,-2.1129824E-1,-7.524415E-2,4.348509E-4,-3.0305445E-2,-1.876529E-1,-6.432092E-2,-7.4092634E-3,3.2110844E-2,-6.9047436E-2,-1.3408786E-1,4.051994E-3,-1.1692195E-1,-2.1688661E-1,-1.9428973E-1,5.342337E-3,-5.3253835E-3,-2.653235E-1,1.4870362E-1,2.6439184E-3,1.9168733E-1,3.648171E-3,2.059202E-2,3.7196916E-2,1.494455E-1,2.2858374E-1,6.200401E-3,-1.6642793E-1,-2.32371E-3,-1.5336974E-1,8.728741E-2,4.408595E-2,-1.0347819E-2,9.110894E-2,7.185881E-3,2.416063E-3,1.7338172E-1,9.4876304E-2,5.3790465E-2,9.965625E-2,9.171624E-3,-1.0698831E-1,2.630872E-1,2.1540258E-2,-1.1921489E-2,-4.5322436E-3,-1.3380296E-3,-8.603416E-2,2.937205E-4,-2.945447E-3,-1.6199444E-1,-1.04779145E-2,-9.7717315E-2,8.903956E-3,1.37376115E-2,2.795819E-3,-1.7992854E-3,-1.0556467E-1,-1.6991267E-1,-2.4975294E-3,-1.3119066E-1,-1.7091893E-3,-1.3238321E-2,-1.7523164E-1,-1.448991E-1,-2.2980252E-1,-1.4284772E-2,-1.6567303E-1,7.7251727E-3,3.744211E-3,1.7937624E-1,1.1509744E-2,8.091828E-3,3.2808862E-3,2.5240618E-1,1.0476357E-2,1.2668354E-2,-3.1799995E-3,-9.802857E-3,-4.0188557E-3,4.079136E-2,-1.2517767E-1,-2.8133935E-3,-9.178213E-3,1.10732645E-1,1.0970754E-3,5.2130178E-2,1.0916625E-2,3.742235E-3,-1.620923E-3,4.5825798E-2,5.2613006E-3,6.7471378E-3,1.02359215E-2,7.446337E-2,1.1373389E-1,7.9909E-2,4.037643E-2,6.3279676E-3,7.4803695E-2,-1.8005764E-2,1.0998059E-1,-1.08348075E-2,-8.408945E-2,6.1993934E-3,2.1025924E-2,-5.9899054E-2,7.168874E-2,-5.16862E-3,-2.2276898E-3,-5.3736195E-4,-1.7141984E-1,-8.265888E-3,-7.048485E-2,2.4000946E-3,-3.0871711E-3,1.5233104E-3,-2.2032366E-3,1.4477969E-5,-1.7191544E-4,-6.2426347E-3,-2.872425E-3,-4.823401E-3,-1.0962016E-2,-3.4015682E-3,-1.5596716E-1,-2.2077678E-1,-1.2203728E-1,-2.1795014E-1,4.6108016E-3,-5.089286E-3,-1.2773148E-2,-3.1457325E-3,-1.0328323E-2,9.098143E-3,4.398659E-3,1.2929486E-2,5.368636E-3,2.0678435E-2,-1.3568695E-2,-2.4214746E-2,1.2032631E-2,-1.8430457E-3,-9.109999E-3,6.3052475E-3,2.2309364E-3,4.4886317E-2,4.5263455E-3,5.493411E-3,7.7121356E-4,2.994202E-4,2.8025359E-5,5.2205487E-3,-1.2107916E-3,8.872669E-2,2.4807373E-2,1.2945019E-1,7.998907E-2,5.8448676E-2,1.0298064E-1,-2.431516E-3,4.8975427E-2,1.6507071E-3,8.512247E-2,6.0627274E-2,-5.174937E-2,1.3371794E-1,-1.763555E-2,3.2196713E-3,-1.00969575E-1,-1.2371664E-1,3.0190675E-2,-1.4301038E-1,1.07093975E-1,-1.863645E-1,-1.1799813E-1,-1.7815623E-2,-1.0030482E-1,-3.981592E-3,-8.865316E-3,-5.7722256E-3,-1.2710108E-2,-8.100015E-2,-7.75409E-3,-4.6306746E-3,-1.2668735E-2,1.2111182E-3,-9.0792443E-4,-1.7727724E-3,2.2712276E-4,-6.2652812E-3,9.962175E-4,2.5500339E-3,9.4191835E-4,5.171992E-4,-3.6525726E-5,3.7236705E-3,6.2046326E-3,-2.6736574E-3,2.4416798E-3,4.753774E-3,7.42026E-3,5.1169363E-3,1.8167628E-3,3.540111E-3,1.1430979E-4,5.8822334E-4,6.0843322E-3,-1.7743375E-3,1.7846627E-3,5.9512765E-3,1.7037472E-3,3.038829E-3,6.235329E-3,4.8629884E-4,1.2874804E-2,-3.7571178E-3,-8.952261E-4,7.3976675E-3,-3.2385625E-4,2.752392E-3,-4.295503E-3,1.7507713E-3,-5.875558E-3,-3.2195623E-3,-9.294889E-3,6.557563E-3,-2.4395199E-3,-9.684146E-3,-3.406373E-3,3.987577E-3,7.1348012E-3,-7.1678716E-3,-1.1707505E-2,-1.528591E-4,-8.437166E-3,-3.5120242E-3,1.9531571E-3,-5.2061904E-4,-6.867133E-3,-6.1398083E-3,-9.4770495E-4],"categories":[],"categories_nodes":[],"categories_segments":[],"categories_sizes":[],"default_left":[0,0,0,0,0,0,0,0,0,0,0,0,0,0,0,0,0,0,0,0,0,0,0,0,0,0,0,0,0,0,0,0,0,0,0,0,0,0,0,0,0,0,0,0,0,0,0,0,0,0,0,0,0,0,0,0,0,0,0,0,0,0,0,0,0,0,0,0,0,0,0,0,0,0,0,0,0,0,0,0,0,0,0,0,0,0,0,0,0,0,0,0,0,0,0,0,0,0,0,0,0,0,0,0,0,0,0,0,0,0,0,0,0,0,0,0,0,0,0,0,0,0,0,0,0,0,0,0,0,0,0,0,0,0,0,0,0,0,0,0,0,0,0,0,0,0,0,0,0,0,0,0,0,0,0,0,0,0,0,0,0,0,0,0,0,0,0,0,0,0,0,0,0,0,0,0,0,0,0,0,0,0,0,0,0,0,0,0,0,0,0,0,0,0,0,0,0,0,0,0,0,0,0,0,0,0,0,0,0,0,0,0,0,0,0,0,0,0,0,0,0,0,0,0,0,0,0,0,0,0,0,0,0,0,0,0,0,0,0,0,0,0,0,0,0,0,0,0,0,0,0,0,0,0,0,0,0,0,0,0,0,0,0,0,0,0,0,0,0,0,0,0,0,0,0,0,0,0,0,0,0,0,0,0,0,0,0,0,0,0,0,0,0,0,0,0,0,0,0,0,0,0,0,0,0,0,0,0,0,0,0,0,0,0,0,0,0],"id":4,"left_children":[1,3,5,7,9,11,13,15,17,19,21,23,25,27,29,31,33,35,37,39,41,43,45,47,49,51,53,-1,-1,55,-1,-1,57,-1,-1,-1,-1,59,61,63,65,67,-1,-1,69,71,73,75,77,-1,79,81,83,85,87,89,91,-1,-1,93,95,97,99,101,-1,103,105,-1,107,109,-1,111,113,115,117,-1,119,121,-1,123,125,127,-1,129,131,133,-1,135,137,139,-1,-1,141,143,-1,145,-1,-1,-1,147,149,151,153,155,157,159,161,163,165,-1,-1,167,169,171,173,175,177,179,181,-1,-1,-1,183,-1,-1,185,-1,187,189,191,-1,193,195,197,-1,199,-1,-1,201,203,205,-1,207,-1,-1,209,-1,-1,-1,211,-1,213,-1,-1,-1,215,217,-1,-1,219,-1,221,223,225,-1,227,-1,-1,-1,229,231,233,235,-1,237,239,241,-1,243,-1,-1,245,247,-1,-1,-1,249,-1,251,-1,-1,-1,-1,-1,-1,-1,-1,-1,-1,-1,253,255,257,259,-1,-1,-1,-1,-1,-1,-1,-1,-1,261,263,265,-1,-1,-1,-1,-1,267,-1,269,-1,-1,-1,-1,-1,271,273,275,277,279,281,283,285,-1,287,289,291,293,295,-1,297,299,301,303,305,307,309,311,313,-1,-1,-1,-1,315,-1,-1,-1,-1,-1,-1,-1,-1,-1,-1,-1,-1,-1,-1,-1,-1,-1,-1,-1,-1,-1,-1,-1,-1,-1,-1,-1,-1,-1,-1,-1,-1,-1,-1,-1,-1,-1,-1,-1,-1,-1,-1,-1,-1,-1,-1,-1,-1,-1,-1,-1,-1,-1,-1,-1,-1,-1,-1,-1],"loss_changes":[6.458441E1,1.4591867E1,3.72126E0,1.5515709E0,2.442975E-1,8.7755585E-1,2.6069641E-2,2.0127296E-3,4.206047E0,8.680025E-1,1.5125434E0,1.3806343E-1,4.305377E-1,1.3266373E-1,4.2901325E-1,1.8644333E-4,2.1519512E-3,1.2661934E-1,9.075241E-1,1.632199E-1,1.3858604E-1,1.7630937E0,8.540579E-1,1.04492605E-1,3.170967E-2,9.8293185E-2,1.4789283E-1,0E0,0E0,1.4925337E-1,0E0,0E0,5.909145E-3,0E0,0E0,0E0,0E0,3.212881E-2,4.1203117E0,1.245929E-1,3.370393E-1,5.738622E-2,0E0,0E0,3.3061782E-1,1.8747067E-1,6.6381097E-1,5.6141496E-2,1.8530387E-2,0E0,1.301415E-1,2.8589725E-2,1.0512208E-1,1.8099979E-1,7.955134E-2,3.6019152E-1,2.7235031E-2,0E0,0E0,1.3394177E-2,1.8802166E-2,3.0347824E-1,5.1193714E-2,2.3132618E-1,0E0,2.1362093E-1,2.2273093E-2,0E0,6.712501E-2,1.0603368E-2,0E0,1.6523051E-1,4.340136E-2,5.2963114E-1,1.701148E0,0E0,2.0943165E-2,5.021602E-3,0E0,7.590148E-3,2.1696568E-2,7.1788035E-2,0E0,1.0603845E-2,4.1557238E-2,2.7683198E-2,0E0,1.676564E-2,1.3437629E-2,1.4059782E-2,0E0,0E0,3.184104E-2,6.41191E-3,0E0,2.7968884E-3,0E0,0E0,0E0,8.077502E-3,9.308338E-3,2.6539253E-2,7.188052E-3,1.4282444E-1,3.365037E-2,2.5147244E-2,1.4106095E-2,3.2310826E-3,9.24176E-3,0E0,0E0,1.8147588E-2,3.8108587E-2,3.7064344E-2,9.2540085E-3,5.0334984E-1,1.07387364E-1,7.143111E-1,7.271724E-1,0E0,0E0,0E0,3.305532E-3,0E0,0E0,6.943619E-2,0E0,2.5166154E-2,3.0585468E-2,1.681372E-2,0E0,2.4961251E-5,3.036134E-3,7.833123E-3,0E0,1.28623545E-2,0E0,0E0,1.9089162E-2,2.625996E-1,1.9987047E-2,0E0,2.4823204E-2,0E0,0E0,1.7240047E-3,0E0,0E0,0E0,2.2456646E-2,0E0,1.1419105E-2,0E0,0E0,0E0,2.6567137E-1,2.8536119E-2,0E0,0E0,7.5855553E-3,0E0,8.174777E-3,2.0861928E-4,4.6670342E-5,0E0,3.125221E-2,0E0,0E0,0E0,4.100281E-2,2.1996379E-2,1.2795687E-2,2.8831318E-2,0E0,4.5204386E-3,3.87875E-1,1.2049964E-1,0E0,1.1427739E-1,0E0,0E0,3.9468804E-1,8.5147744E-1,0E0,0E0,0E0,1.5532613E-2,0E0,2.3342527E-2,0E0,0E0,0E0,0E0,0E0,0E0,0E0,0E0,0E0,0E0,0E0,2.170086E-3,2.3407042E-3,2.35492E-3,2.5373995E-2,0E0,0E0,0E0,0E0,0E0,0E0,0E0,0E0,0E0,6.082887E-3,5.31418E-3,7.38896E-2,0E0,0E0,0E0,0E0,0E0,5.2506253E-3,0E0,2.1888367E-4,0E0,0E0,0E0,0E0,0E0,1.4450192E-2,3.0823067E-2,1.1953175E-2,1.7745763E-2,1.51018575E-2,2.7575359E-2,1.8909764E-2,6.378992E-2,0E0,4.948996E-3,4.3841422E-1,7.941127E-2,6.681752E-2,3.946612E-2,0E0,9.184158E-2,1.3558662E-1,2.3764418E-1,4.7517E-2,8.1097364E-2,3.8362026E-2,7.53092E-2,2.3616843E-2,3.186415E-2,0E0,0E0,0E0,0E0,1.582545E-2,0E0,0E0,0E0,0E0,0E0,0E0,0E0,0E0,0E0,0E0,0E0,0E0,0E0,0E0,0E0,0E0,0E0,0E0,0E0,0E0,0E0,0E0,0E0,0E0,0E0,0E0,0E0,0E0,0E0,0E0,0E0,0E0,0E0,0E0,0E0,0E0,0E0,0E0,0E0,0E0,0E0,0E0,0E0,0E0,0E0,0E0,0E0,0E0,0E0,0E0,0E0,0E0,0E0,0E0,0E0,0E0,0E0,0E0,0E0],"parents":[2147483647,0,0,1,1,2,2,3,3,4,4,5,5,6,6,7,7,8,8,9,9,10,10,11,11,12,12,13,13,14,14,15,15,16,16,17,17,18,18,19,19,20,20,21,21,22,22,23,23,24,24,25,25,26,26,29,29,32,32,37,37,38,38,39,39,40,40,41,41,44,44,45,45,46,46,47,47,48,48,50,50,51,51,52,52,53,53,54,54,55,55,56,56,59,59,60,60,61,61,62,62,63,63,65,65,66,66,68,68,69,69,71,71,72,72,73,73,74,74,76,76,77,77,79,79,80,80,81,81,83,83,84,84,85,85,87,87,88,88,89,89,92,92,93,93,95,95,99,99,100,100,101,101,102,102,103,103,104,104,105,105,106,106,107,107,108,108,111,111,112,112,113,113,114,114,115,115,116,116,117,117,118,118,122,122,125,125,127,127,128,128,129,129,131,131,132,132,133,133,135,135,138,138,139,139,140,140,142,142,145,145,149,149,151,151,155,155,156,156,159,159,161,161,162,162,163,163,165,165,169,169,170,170,171,171,172,172,174,174,175,175,176,176,178,178,181,181,182,182,186,186,188,188,200,200,201,201,202,202,203,203,213,213,214,214,215,215,221,221,223,223,229,229,230,230,231,231,232,232,233,233,234,234,235,235,236,236,238,238,239,239,240,240,241,241,242,242,244,244,245,245,246,246,247,247,248,248,249,249,250,250,251,251,252,252,257,257],"right_children":[2,4,6,8,10,12,14,16,18,20,22,24,26,28,30,32,34,36,38,40,42,44,46,48,50,52,54,-1,-1,56,-1,-1,58,-1,-1,-1,-1,60,62,64,66,68,-1,-1,70,72,74,76,78,-1,80,82,84,86,88,90,92,-1,-1,94,96,98,100,102,-1,104,106,-1,108,110,-1,112,114,116,118,-1,120,122,-1,124,126,128,-1,130,132,134,-1,136,138,140,-1,-1,142,144,-1,146,-1,-1,-1,148,150,152,154,156,158,160,162,164,166,-1,-1,168,170,172,174,176,178,180,182,-1,-1,-1,184,-1,-1,186,-1,188,190,192,-1,194,196,198,-1,200,-1,-1,202,204,206,-1,208,-1,-1,210,-1,-1,-1,212,-1,214,-1,-1,-1,216,218,-1,-1,220,-1,222,224,226,-1,228,-1,-1,-1,230,232,234,236,-1,238,240,242,-1,244,-1,-1,246,248,-1,-1,-1,250,-1,252,-1,-1,-1,-1,-1,-1,-1,-1,-1,-1,-1,254,256,258,260,-1,-1,-1,-1,-1,-1,-1,-1,-1,262,264,266,-1,-1,-1,-1,-1,268,-1,270,-1,-1,-1,-1,-1,272,274,276,278,280,282,284,286,-1,288,290,292,294,296,-1,298,300,302,304,306,308,310,312,314,-1,-1,-1,-1,316,-1,-1,-1,-1,-1,-1,-1,-1,-1,-1,-1,-1,-1,-1,-1,-1,-1,-1,-1,-1,-1,-1,-1,-1,-1,-1,-1,-1,-1,-1,-1,-1,-1,-1,-1,-1,-1,-1,-1,-1,-1,-1,-1,-1,-1,-1,-1,-1,-1,-1,-1,-1,-1,-1,-1,-1,-1,-1,-1],"split_conditions":[6.64311E-1,1.6446115E-1,9.9731505E-1,5.6901517E-5,6.668084E-2,5.999553E-1,9.9996305E-1,1.4313789E-3,3.3328617E-1,8.3255875E-1,1.9998026E-1,1.668174E-1,6.661072E-1,1.6903266E-1,6.68991E-1,2.9162878E-5,3.2264396E-7,6.664351E-2,3.3340064E-1,3.319789E-1,3.3487883E-1,1.6827768E-1,3.3112788E-1,2.126024E-5,3.33322E-1,3.3340928E-1,9.9998134E-1,-1.8212944E-2,-1.4576383E-2,9.999988E-1,-1.7570497E-2,8.55384E-3,4.1035382E-5,7.355725E-3,4.1117314E-3,1.3482352E-2,2.6949102E-2,3.333222E-1,9.333131E-1,3.341249E-1,1.6775449E-1,2.126367E-6,1.31607875E-2,2.4600387E-2,6.6543365E-1,9.9997354E-1,3.3340064E-1,6.6574E-1,3.3334875E-1,-1.0631264E-2,3.3158728E-1,3.333042E-1,5.012129E-1,6.671505E-1,9.98007E-1,9.9999756E-1,9.987555E-1,6.799962E-3,2.5823177E-3,1.348957E-3,2.3393796E-3,6.666342E-1,9.9997646E-1,3.3112788E-1,-4.8980433E-3,1.666163E-1,6.6432357E-1,6.0853804E-3,3.3331156E-2,5.0001806E-1,-8.49485E-3,1.6757168E-1,6.6815805E-1,9.984338E-1,6.666342E-1,-2.841414E-3,1.6653039E-1,1.651347E-1,4.348509E-4,6.668658E-1,6.665845E-1,3.3234417E-1,-7.4092634E-3,9.9998784E-1,6.6679496E-1,9.9997354E-1,4.051994E-3,6.675706E-1,9.994917E-1,3.3180842E-1,5.342337E-3,-5.3253835E-3,3.344971E-1,3.3332157E-1,2.6439184E-3,9.3944825E-4,3.648171E-3,2.059202E-2,3.7196916E-2,9.9997526E-1,9.999985E-1,3.9169747E-5,3.2264396E-7,3.3432543E-1,3.3261386E-1,3.3421028E-1,2.5639005E-5,3.3075776E-2,3.510868E-2,7.185881E-3,2.416063E-3,3.357522E-2,3.3333504E-1,1.6795713E-1,9.99998E-1,6.6432357E-1,9.9918294E-1,5.999553E-1,9.9996674E-1,-1.1921489E-2,-4.5322436E-3,-1.3380296E-3,1.6635688E-1,2.937205E-4,-2.945447E-3,3.333258E-1,-1.04779145E-2,6.6580987E-1,6.670096E-1,9.333131E-1,2.795819E-3,6.6549164E-1,6.655709E-1,6.675131E-1,-2.4975294E-3,6.6624475E-1,-1.7091893E-3,-1.3238321E-2,9.999995E-1,1.6784255E-1,9.99979E-1,-1.4284772E-2,6.65357E-1,7.7251727E-3,3.744211E-3,1.4933242E-3,1.1509744E-2,8.091828E-3,3.2808862E-3,1.8531537E-3,1.0476357E-2,3.3263904E-1,-3.1799995E-3,-9.802857E-3,-4.0188557E-3,1.6631418E-1,1.6581696E-1,-2.8133935E-3,-9.178213E-3,1.7162838E-5,1.0970754E-3,1.225381E-5,6.6655463E-1,3.1864382E-2,-1.620923E-3,3.3822488E-2,5.2613006E-3,6.7471378E-3,1.02359215E-2,3.400955E-2,3.344298E-2,3.317204E-2,9.999852E-1,6.3279676E-3,9.990601E-1,1.6741298E-1,6.684886E-1,-1.08348075E-2,9.9936897E-1,6.1993934E-3,2.1025924E-2,6.6629684E-1,1.6717833E-1,-5.16862E-3,-2.2276898E-3,-5.3736195E-4,6.6732395E-1,-8.265888E-3,6.6649663E-1,2.4000946E-3,-3.0871711E-3,1.5233104E-3,-2.2032366E-3,1.4477969E-5,-1.7191544E-4,-6.2426347E-3,-2.872425E-3,-4.823401E-3,-1.0962016E-2,-3.4015682E-3,9.9999756E-1,9.999894E-1,6.672189E-1,1.6641998E-1,4.6108016E-3,-5.089286E-3,-1.2773148E-2,-3.1457325E-3,-1.0328323E-2,9.098143E-3,4.398659E-3,1.2929486E-2,5.368636E-3,3.4871913E-2,3.3354104E-1,1.6562738E-1,1.2032631E-2,-1.8430457E-3,-9.109999E-3,6.3052475E-3,2.2309364E-3,2.126367E-6,4.5263455E-3,6.658308E-1,7.7121356E-4,2.994202E-4,2.8025359E-5,5.2205487E-3,-1.2107916E-3,3.366569E-2,3.33306E-1,3.3399448E-1,6.6655463E-1,3.2910835E-2,1.6551179E-1,3.3229426E-2,9.999946E-1,1.6507071E-3,3.3743575E-2,4.9731994E-1,3.3439538E-1,3.3509538E-1,3.3331776E-1,3.2196713E-3,3.322063E-1,3.3468005E-1,8.666431E-1,9.999953E-1,3.335454E-1,6.667557E-1,3.3307263E-1,9.999852E-1,9.9997354E-1,-3.981592E-3,-8.865316E-3,-5.7722256E-3,-1.2710108E-2,6.6655254E-1,-7.75409E-3,-4.6306746E-3,-1.2668735E-2,1.2111182E-3,-9.0792443E-4,-1.7727724E-3,2.2712276E-4,-6.2652812E-3,9.962175E-4,2.5500339E-3,9.4191835E-4,5.171992E-4,-3.6525726E-5,3.7236705E-3,6.2046326E-3,-2.6736574E-3,2.4416798E-3,4.753774E-3,7.42026E-3,5.1169363E-3,1.8167628E-3,3.540111E-3,1.1430979E-4,5.8822334E-4,6.0843322E-3,-1.7743375E-3,1.7846627E-3,5.9512765E-3,1.7037472E-3,3.038829E-3,6.235329E-3,4.8629884E-4,1.2874804E-2,-3.7571178E-3,-8.952261E-4,7.3976675E-3,-3.2385625E-4,2.752392E-3,-4.295503E-3,1.7507713E-3,-5.875558E-3,-3.2195623E-3,-9.294889E-3,6.557563E-3,-2.4395199E-3,-9.684146E-3,-3.406373E-3,3.987577E-3,7.1348012E-3,-7.1678716E-3,-1.1707505E-2,-1.528591E-4,-8.437166E-3,-3.5120242E-3,1.9531571E-3,-5.2061904E-4,-6.867133E-3,-6.1398083E-3,-9.4770495E-4],"split_indices":[3,2,3,1,1,1,1,3,1,2,1,2,2,2,2,1,1,1,1,3,3,2,3,1,1,2,1,0,0,1,0,0,3,0,0,0,0,1,1,2,2,1,0,0,2,1,1,3,1,0,2,2,2,3,2,1,3,0,0,2,3,1,1,3,0,2,2,0,3,2,0,2,2,2,1,0,2,2,0,3,2,2,0,1,3,1,0,2,2,2,0,0,2,1,0,2,0,0,0,1,1,1,1,3,3,3,1,3,3,0,0,3,1,2,1,2,2,1,1,0,0,0,2,0,0,1,0,3,3,1,0,2,2,2,0,3,0,0,1,2,1,0,2,0,0,3,0,0,0,3,0,2,0,0,0,2,2,0,0,1,0,1,2,3,0,3,0,0,0,3,3,3,1,0,2,2,2,0,2,0,0,2,2,0,0,0,3,0,3,0,0,0,0,0,0,0,0,0,0,0,1,1,3,2,0,0,0,0,0,0,0,0,0,3,2,2,0,0,0,0,0,1,0,2,0,0,0,0,0,3,1,2,2,3,2,3,1,0,3,3,3,3,1,0,3,2,1,1,3,3,2,1,1,0,0,0,0,3,0,0,0,0,0,0,0,0,0,0,0,0,0,0,0,0,0,0,0,0,0,0,0,0,0,0,0,0,0,0,0,0,0,0,0,0,0,0,0,0,0,0,0,0,0,0,0,0,0,0,0,0,0,0,0,0,0,0,0],"split_type":[0,0,0,0,0,0,0,0,0,0,0,0,0,0,0,0,0,0,0,0,0,0,0,0,0,0,0,0,0,0,0,0,0,0,0,0,0,0,0,0,0,0,0,0,0,0,0,0,0,0,0,0,0,0,0,0,0,0,0,0,0,0,0,0,0,0,0,0,0,0,0,0,0,0,0,0,0,0,0,0,0,0,0,0,0,0,0,0,0,0,0,0,0,0,0,0,0,0,0,0,0,0,0,0,0,0,0,0,0,0,0,0,0,0,0,0,0,0,0,0,0,0,0,0,0,0,0,0,0,0,0,0,0,0,0,0,0,0,0,0,0,0,0,0,0,0,0,0,0,0,0,0,0,0,0,0,0,0,0,0,0,0,0,0,0,0,0,0,0,0,0,0,0,0,0,0,0,0,0,0,0,0,0,0,0,0,0,0,0,0,0,0,0,0,0,0,0,0,0,0,0,0,0,0,0,0,0,0,0,0,0,0,0,0,0,0,0,0,0,0,0,0,0,0,0,0,0,0,0,0,0,0,0,0,0,0,0,0,0,0,0,0,0,0,0,0,0,0,0,0,0,0,0,0,0,0,0,0,0,0,0,0,0,0,0,0,0,0,0,0,0,0,0,0,0,0,0,0,0,0,0,0,0,0,0,0,0,0,0,0,0,0,0,0,0,0,0,0,0,0,0,0,0,0,0,0,0,0,0,0,0,0,0,0,0,0,0],"sum_hessian":[2.413E3,1.583E3,8.3E2,5.33E2,1.05E3,4.29E2,4.01E2,1.52E2,3.81E2,2.8E2,7.7E2,2.93E2,1.36E2,2.88E2,1.13E2,1.39E2,1.3E1,6.3E1,3.18E2,2.01E2,7.9E1,3.1E1,7.39E2,3.2E1,2.61E2,7.4E1,6.2E1,5.1E1,2.37E2,7.1E1,4.2E1,1.3E2,9E0,6E0,7E0,5E0,5.8E1,1.39E2,1.79E2,9.1E1,1.1E2,7.4E1,5E0,1.6E1,1.5E1,2.98E2,4.41E2,1.6E1,1.6E1,1.57E2,1.04E2,3.3E1,4.1E1,1.6E1,4.6E1,3E1,4.1E1,6E0,3E0,4.4E1,9.5E1,2.6E1,1.53E2,6.4E1,2.7E1,3.9E1,7.1E1,4.4E1,3E1,1E1,5E0,1.57E2,1.41E2,2.31E2,2.1E2,4E0,1.2E1,1.3E1,3E0,6E0,9.8E1,2.8E1,5E0,2.5E1,1.6E1,1.1E1,5E0,1.7E1,2.9E1,2.6E1,4E0,3E0,3.8E1,4.1E1,3E0,9.2E1,3E0,9E0,1.7E1,1.7E1,1.36E2,5.6E1,8E0,2.5E1,1.4E1,1.7E1,5.4E1,9E0,2.1E1,7E0,3E0,3.7E1,1.2E2,1.14E2,2.7E1,1.82E2,4.9E1,3.4E1,1.76E2,9E0,3E0,3E0,1E1,3E0,3E0,4.9E1,4.9E1,1.9E1,9E0,1.5E1,1E1,6E0,1E1,7E0,4E0,1.4E1,3E0,1.1E1,1.8E1,1.3E1,1.3E1,3E1,8E0,3.7E1,4E0,7.4E1,1.8E1,1.4E1,3E0,5.5E1,8.1E1,5.2E1,4E0,5E0,3E0,1.9E1,6E0,4E0,1E1,1.2E1,5E0,4.3E1,1.1E1,6E0,3E0,6E0,1.5E1,1.9E1,1.8E1,6E1,6E1,3.7E1,7.7E1,1.1E1,1.6E1,1.44E2,3.8E1,7E0,4.2E1,1.9E1,1.5E1,6.7E1,1.09E2,6E0,4E0,3E0,4.6E1,4E0,1.5E1,6E0,3E0,1.2E1,3E0,3E0,3E0,6E0,4E0,4E0,3E0,5E0,9E0,8E0,1E1,1E1,3E0,3E0,1E1,3E0,5E0,7.1E1,3E0,5.2E1,3E0,4E1,1.2E1,1.5E1,4E0,3E0,3E0,9E0,3E0,3.8E1,5E0,6E0,5E0,3E0,3E0,3E0,3E0,4.6E1,1.4E1,3.9E1,2.1E1,2.1E1,1.6E1,1.3E1,6.4E1,4E0,1.2E1,4.3E1,1.01E2,3.2E1,6E0,4E0,3.8E1,3.9E1,2.8E1,1.5E1,9.4E1,3.4E1,1.2E1,6E0,9E0,3E0,6E0,3E0,5E0,6E0,4E0,3E0,7E0,3.7E1,3E0,5E0,7E0,4E0,1.1E1,3E1,8E0,3E0,3E0,3.5E1,1.1E1,3E0,1.1E1,1.6E1,2.3E1,1.3E1,8E0,1.7E1,4E0,3E0,1.3E1,7E0,6E0,1E1,5.4E1,9E0,3E0,3.5E1,8E0,5.9E1,4.2E1,2.9E1,3E0,3E0,3E0,4E0,3.4E1,2.1E1,1.8E1,1.2E1,1.6E1,8E0,7E0,5.5E1,3.9E1,2E1,1.4E1,4E0,8E0,3E0,3E0,3E0,6E0,3E0,3E0],"tree_param":{"num_deleted":"0","num_feature":"4","num_nodes":"317","size_leaf_vector":"1"}},{"base_weights":[2.0931493E-3,1.1476237E-1,-2.1803296E-1,2.4451749E-1,5.068333E-2,-6.468441E-2,-2.7978608E-1,2.7156544E-1,1.363157E-1,8.926411E-2,-8.763256E-3,-1.2244608E-1,6.938673E-2,-2.1001703E-1,-3.338124E-1,2.417802E-1,5.1041865E-1,1.400223E-1,8.598899E-2,5.031816E-2,1.3001138E-1,-2.0532766E-2,2.402739E-2,-1.14796646E-1,-9.589865E-3,8.766702E-2,3.5672642E-2,-6.838226E-2,-2.593424E-1,-1.855132E-2,-1.2000682E-2,2.7884167E-1,1.5350765E-1,2.930346E-2,2.083264E-2,8.376255E-3,1.24386236E-1,2.356415E-3,5.2020703E-3,1.19680025E-1,-1.0489599E-1,1.623507E-1,2.1185111E-2,-1.0064631E-1,4.371632E-2,-1.4227775E-1,-8.960208E-2,6.0916387E-2,9.531676E-2,4.023438E-2,3.777063E-4,-1.0886533E-1,-6.6612554E-3,-2.1504207E-1,-1.538487E-2,2.4052751E-1,5.3207827E-1,5.2079684E-3,1.7068401E-1,1.0540988E-1,6.9852094E-3,2.9816603E-2,1.5447827E-1,-1.0986998E-2,-7.992946E-2,1.48029E-1,2.413842E-1,3.5754913E-3,1.7287845E-2,-3.5146523E-2,-1.5596966E-1,7.0613897E-3,1.5292737E-1,-5.305767E-3,-7.6725124E-3,-3.5747625E-2,-6.447294E-3,3.5588045E-3,1.5132821E-3,1.0642206E-1,6.919112E-2,2.5806404E-3,1.4616525E-3,-4.522327E-2,-1.3364056E-1,3.346938E-3,-2.171704E-2,-1.87649E-1,-2.5188893E-1,3.1301805E-1,1.3641165E-1,4.398146E-1,4.125609E-2,7.405974E-3,9.322348E-3,5.8622854E-3,6.65648E-4,9.828186E-2,-1.9027995E-1,6.403914E-3,1.883701E-1,-2.543303E-2,-1.081656E-1,1.8542506E-1,1.0886697E-1,1.5907593E-2,1.6406249E-1,-1.5577394E-2,2.7314164E-2,-1.975459E-2,-2.7498265E-3,-4.9203876E-2,-1.909022E-1,-4.095601E-2,4.560052E-2,6.2267645E-3,2.1967313E-1,-2.6390294E-2,-3.2599752E-3,7.921519E-2,1.2642755E-1,1.076714E-1,3.176113E-4,-5.9447888E-5,-6.4661965E-2,-7.0532807E-3,-2.598375E-3,1.0436493E-3,-3.1278692E-2,-1.1713347E-2,-1.5081437E-1,-6.109215E-3,-1.294567E-2,2.6190504E-1,2.5959602E-2,7.862302E-3,5.917497E-3,2.6001582E-2,1.5362702E-2,2.986008E-3,1.23284385E-1,-4.32887E-3,-1.0377576E-2,1.4346868E-1,1.1179397E-2,-8.199655E-3,7.190557E-4,-1.1806498E-1,9.200436E-4,1.1961401E-1,4.312666E-1,9.056794E-3,6.688042E-2,6.298373E-3,1.1597816E-2,6.407827E-4,-2.2577021E-2,-5.642109E-4,2.9805915E-2,-1.9925002E-3,3.2771094E-4,-2.030334E-3,-3.046559E-3,-1.5374574E-1,-1.1151747E-2,-1.0375937E-1,1.8250914E-2,1.1782008E-1,4.754727E-3,4.892984E-3,1.2606132E-2,8.21434E-5,-2.9688077E-2,2.3447564E-3,4.780083E-3,3.8659517E-3,7.7232397E-3,2.02728E-3,6.991889E-3,-5.050709E-3,3.0159205E-4,7.328722E-5,-5.218612E-2,-5.8637722E-3,-9.267313E-3,9.8239025E-3,1.7184235E-2,6.4594387E-3,2.6304305E-3,1.5236287E-1,1.9335806E-3,-8.6479396E-2,-8.733849E-3,1.0429462E-1,1.3851902E-1,2.2816211E-2,1.0221317E-2,3.2176536E-2,6.458176E-3,2.375044E-4,-3.0461697E-2,3.3759803E-2,-6.6609087E-4,-6.3216714E-3,1.9239866E-3,-1.9056945E-1,-1.06892064E-1,-2.1384912E-2,-5.9268153E-3,5.025249E-2,-5.4541133E-2,8.3882384E-2,7.4409926E-3,1.00309454E-1,-2.7195906E-2,-3.055571E-3,-2.2932362E-2,2.4489232E-3,-1.6271189E-3,-3.756779E-3,-2.5059998E-2,8.839561E-3,5.7259942E-3,-2.8229377E-3,-4.8715067E-3,4.7043525E-3,8.969344E-3,5.8207735E-3,9.471932E-3,2.0947182E-3,-3.895238E-3,-1.9421763E-3,-1.0061503E-3,1.1821893E-3,2.7957929E-3,6.150501E-4,-8.5369154E-4,-5.5919695E-3,-1.0467841E-2,-6.2514655E-3,-3.3162336E-3,-3.585261E-3,1.7140814E-3,9.16465E-4,4.4066315E-3,-5.4861926E-3,-8.911971E-4,5.6525576E-3,1.9455705E-3,-1.5398009E-3,9.102617E-3,-2.9238216E-3,1.9509959E-3,-3.206869E-4,-1.5657357E-3,-8.982495E-5,-2.102925E-3],"categories":[],"categories_nodes":[],"categories_segments":[],"categories_sizes":[],"default_left":[0,0,0,0,0,0,0,0,0,0,0,0,0,0,0,0,0,0,0,0,0,0,0,0,0,0,0,0,0,0,0,0,0,0,0,0,0,0,0,0,0,0,0,0,0,0,0,0,0,0,0,0,0,0,0,0,0,0,0,0,0,0,0,0,0,0,0,0,0,0,0,0,0,0,0,0,0,0,0,0,0,0,0,0,0,0,0,0,0,0,0,0,0,0,0,0,0,0,0,0,0,0,0,0,0,0,0,0,0,0,0,0,0,0,0,0,0,0,0,0,0,0,0,0,0,0,0,0,0,0,0,0,0,0,0,0,0,0,0,0,0,0,0,0,0,0,0,0,0,0,0,0,0,0,0,0,0,0,0,0,0,0,0,0,0,0,0,0,0,0,0,0,0,0,0,0,0,0,0,0,0,0,0,0,0,0,0,0,0,0,0,0,0,0,0,0,0,0,0,0,0,0,0,0,0,0,0,0,0,0,0,0,0,0,0,0,0,0,0,0,0,0,0,0,0,0,0,0,0,0,0,0,0,0,0,0,0,0,0,0,0,0,0,0,0,0,0,0,0,0,0,0,0,0,0,0,0],"id":5,"left_children":[1,3,5,7,9,11,13,15,17,19,21,23,25,27,29,31,33,35,37,39,41,43,-1,45,-1,47,49,51,53,-1,-1,55,57,-1,-1,-1,59,-1,-1,61,63,65,67,69,71,73,75,77,79,81,-1,83,85,87,-1,89,91,-1,93,95,-1,97,99,-1,101,103,105,-1,107,109,111,113,115,-1,-1,117,-1,-1,-1,119,121,-1,-1,123,125,-1,127,129,131,133,135,137,-1,-1,-1,-1,-1,139,141,-1,143,145,147,149,151,-1,153,155,157,159,-1,161,163,165,167,-1,169,171,-1,173,175,177,-1,-1,179,-1,-1,-1,181,-1,183,-1,-1,185,-1,-1,-1,-1,-1,-1,187,-1,-1,189,-1,-1,-1,191,-1,193,195,-1,197,-1,-1,-1,199,-1,201,-1,203,-1,-1,205,-1,207,209,211,213,-1,-1,-1,215,-1,-1,-1,-1,-1,-1,-1,-1,217,219,-1,-1,-1,-1,-1,-1,221,-1,223,-1,225,227,-1,-1,229,-1,-1,231,233,-1,235,-1,237,239,241,-1,243,245,247,-1,249,251,-1,253,-1,-1,-1,255,-1,-1,-1,-1,-1,-1,-1,-1,-1,-1,-1,-1,-1,-1,-1,-1,-1,-1,-1,-1,-1,-1,-1,-1,-1,-1,-1,-1,-1,-1,-1,-1,-1,-1,-1,-1],"loss_changes":[6.0143707E1,1.3324202E1,7.756569E0,1.5140953E0,2.4662902E0,1.8438654E0,2.1349716E0,2.8859386E0,8.105993E-3,1.0281434E0,2.4516628E0,6.604481E-2,4.1246533E-2,1.7847023E0,1.0558739E0,1.1938267E0,8.211136E-2,2.1735668E-2,2.1120012E-3,3.619145E0,1.1157193E0,2.140497E0,0E0,9.249258E-2,0E0,3.6068559E-3,3.1593367E-3,1.691834E-1,3.4298134E-1,0E0,0E0,2.4431953E0,7.8850746E-2,0E0,0E0,0E0,4.749179E-3,0E0,0E0,7.2087836E-1,2.8063095E-1,2.4158192E-1,1.3277281E-2,6.648965E-1,9.2364144E-1,1.2402415E-2,1.6913521E-1,1.9338876E-3,2.5010705E-3,1.3702884E-3,0E0,5.860293E-2,3.2480676E-2,5.6695938E-2,0E0,1.7083015E0,5.5636597E-1,0E0,1.9052029E-3,3.5500556E-2,0E0,1.0132529E0,1.2529612E-1,0E0,1.3112193E-1,2.8735924E-1,1.6149211E-1,0E0,2.3491696E-2,2.5189139E-2,3.635671E-1,3.238631E-1,8.255601E-2,0E0,0E0,8.200638E-3,0E0,0E0,0E0,1.9593239E-3,3.0750811E-2,0E0,0E0,1.10507235E-2,1.0255635E-2,0E0,1.0426427E-2,7.284975E-2,5.7201385E-3,1.2972116E0,1.7891526E-2,1.3795948E-1,0E0,0E0,0E0,0E0,0E0,4.1808575E-2,1.06883645E-2,0E0,8.019638E-2,1.7337456E-1,7.3589385E-2,1.6633985E0,3.0648935E-1,0E0,2.2509456E-2,3.667933E-3,5.529925E-3,2.0191165E-2,0E0,1.4716387E-4,5.5254698E-2,2.919284E-1,2.8557673E-1,0E0,3.8572013E-2,2.7297456E-3,0E0,1.872085E-3,3.202483E-3,1.1603728E-2,0E0,0E0,2.3738187E-2,0E0,0E0,0E0,1.3113609E-2,0E0,2.22736E-2,0E0,0E0,5.263896E-1,0E0,0E0,0E0,0E0,0E0,0E0,5.722463E-3,0E0,0E0,2.5798798E-2,0E0,0E0,0E0,7.966453E-2,0E0,1.0170341E-2,3.1764984E-2,0E0,1.428236E-1,0E0,0E0,0E0,3.161211E-3,0E0,9.146377E-3,0E0,6.8391273E-3,0E0,0E0,4.5192003E-2,0E0,4.3720305E-2,9.8248705E-2,2.4338752E-2,1.9506915E-1,0E0,0E0,0E0,4.1180365E-3,0E0,0E0,0E0,0E0,0E0,0E0,0E0,0E0,1.594955E-2,5.5874623E-3,0E0,0E0,0E0,0E0,0E0,0E0,8.411586E-3,0E0,6.334126E-3,0E0,2.2213995E-2,1.7338991E-2,0E0,0E0,5.140255E-2,0E0,0E0,1.7158035E-4,9.212092E-3,0E0,4.8154052E-3,0E0,6.1683655E-3,5.687326E-3,2.2066273E-2,0E0,3.3452973E-2,2.4384294E-2,2.0524219E-2,0E0,1.770775E-1,1.017025E-1,0E0,2.9838467E-3,0E0,0E0,0E0,2.6925537E-3,0E0,0E0,0E0,0E0,0E0,0E0,0E0,0E0,0E0,0E0,0E0,0E0,0E0,0E0,0E0,0E0,0E0,0E0,0E0,0E0,0E0,0E0,0E0,0E0,0E0,0E0,0E0,0E0,0E0,0E0,0E0,0E0,0E0,0E0,0E0,0E0],"parents":[2147483647,0,0,1,1,2,2,3,3,4,4,5,5,6,6,7,7,8,8,9,9,10,10,11,11,12,12,13,13,14,14,15,15,16,16,17,17,18,18,19,19,20,20,21,21,23,23,25,25,26,26,27,27,28,28,31,31,32,32,36,36,39,39,40,40,41,41,42,42,43,43,44,44,45,45,46,46,47,47,48,48,49,49,51,51,52,52,53,53,55,55,56,56,58,58,59,59,61,61,62,62,64,64,65,65,66,66,68,68,69,69,70,70,71,71,72,72,75,75,79,79,80,80,83,83,84,84,86,86,87,87,88,88,89,89,90,90,91,91,97,97,98,98,100,100,101,101,102,102,103,103,104,104,106,106,107,107,108,108,109,109,111,111,112,112,113,113,114,114,116,116,117,117,119,119,120,120,121,121,124,124,128,128,130,130,133,133,140,140,143,143,147,147,149,149,150,150,152,152,156,156,158,158,160,160,163,163,165,165,166,166,167,167,168,168,172,172,181,181,182,182,189,189,191,191,193,193,194,194,197,197,200,200,201,201,203,203,205,205,206,206,207,207,209,209,210,210,211,211,213,213,214,214,216,216,220,220],"right_children":[2,4,6,8,10,12,14,16,18,20,22,24,26,28,30,32,34,36,38,40,42,44,-1,46,-1,48,50,52,54,-1,-1,56,58,-1,-1,-1,60,-1,-1,62,64,66,68,70,72,74,76,78,80,82,-1,84,86,88,-1,90,92,-1,94,96,-1,98,100,-1,102,104,106,-1,108,110,112,114,116,-1,-1,118,-1,-1,-1,120,122,-1,-1,124,126,-1,128,130,132,134,136,138,-1,-1,-1,-1,-1,140,142,-1,144,146,148,150,152,-1,154,156,158,160,-1,162,164,166,168,-1,170,172,-1,174,176,178,-1,-1,180,-1,-1,-1,182,-1,184,-1,-1,186,-1,-1,-1,-1,-1,-1,188,-1,-1,190,-1,-1,-1,192,-1,194,196,-1,198,-1,-1,-1,200,-1,202,-1,204,-1,-1,206,-1,208,210,212,214,-1,-1,-1,216,-1,-1,-1,-1,-1,-1,-1,-1,218,220,-1,-1,-1,-1,-1,-1,222,-1,224,-1,226,228,-1,-1,230,-1,-1,232,234,-1,236,-1,238,240,242,-1,244,246,248,-1,250,252,-1,254,-1,-1,-1,256,-1,-1,-1,-1,-1,-1,-1,-1,-1,-1,-1,-1,-1,-1,-1,-1,-1,-1,-1,-1,-1,-1,-1,-1,-1,-1,-1,-1,-1,-1,-1,-1,-1,-1,-1,-1],"split_conditions":[6.64311E-1,2.7563153E-3,3.0602586E-1,9.7749054E-1,6.4395094E-1,5.999553E-1,6.687834E-1,6.973579E-1,1.4933242E-3,3.1494063E-1,4.9731994E-1,4.0173013E-2,8.610171E-3,3.474932E-1,6.973579E-1,5.990744E-1,3.3328617E-1,2.8222645E-5,8.57614E-6,4.0173013E-2,8.666431E-1,9.237049E-1,2.402739E-2,3.9169747E-5,-9.589865E-3,6.6667736E-1,9.9731505E-1,9.999852E-1,6.866515E-1,-1.855132E-2,-1.2000682E-2,3.5125977E-1,3.3328617E-1,2.930346E-2,2.083264E-2,8.376255E-3,3.3335114E-1,2.356415E-3,5.2020703E-3,3.3328617E-1,5.6901517E-5,4.9918818E-1,3.199448E-2,3.3063635E-1,9.9996305E-1,6.6649663E-1,9.9731505E-1,6.663652E-1,9.9990946E-1,1.6159743E-2,3.777063E-4,2.3547575E-6,6.6566885E-1,3.3335853E-1,-1.538487E-2,2.5045255E-1,3.3331448E-1,5.2079684E-3,9.9996305E-1,3.3334875E-1,6.9852094E-3,5.6901517E-5,3.5442427E-2,-1.0986998E-2,2.6670304E-1,3.3329186E-1,3.7039962E-1,3.5754913E-3,3.349111E-2,3.3336198E-1,2.9999617E-5,3.332964E-1,3.317394E-1,-5.305767E-3,-7.6725124E-3,4.4175275E-3,-6.447294E-3,3.5588045E-3,1.5132821E-3,9.9999756E-1,9.999985E-1,2.5806404E-3,1.4616525E-3,6.654914E-1,9.999808E-1,3.346938E-3,3.1797296E-1,3.333117E-1,6.507214E-1,2.4272967E-2,3.3329338E-1,1.3331378E-1,4.125609E-2,7.405974E-3,9.322348E-3,5.8622854E-3,6.65648E-4,3.447469E-2,3.3191746E-1,6.403914E-3,3.3335853E-1,2.5045255E-1,3.0602586E-1,6.664351E-2,3.3158913E-1,1.5907593E-2,5.62788E-1,9.9996054E-1,9.9996495E-1,2.9162878E-5,-2.7498265E-3,2.5894904E-6,3.3335492E-1,3.319789E-1,3.458775E-2,6.2267645E-3,9.9652064E-1,3.3331776E-1,-3.2599752E-3,3.0839344E-4,6.67847E-1,9.99979E-1,3.176113E-4,-5.9447888E-5,6.6631955E-1,-7.0532807E-3,-2.598375E-3,1.0436493E-3,9.999985E-1,-1.1713347E-2,3.333413E-1,-6.109215E-3,-1.294567E-2,3.3337915E-1,2.5959602E-2,7.862302E-3,5.917497E-3,2.6001582E-2,1.5362702E-2,2.986008E-3,3.3432543E-1,-4.32887E-3,-1.0377576E-2,3.3509538E-1,1.1179397E-2,-8.199655E-3,7.190557E-4,2.5045255E-1,9.200436E-4,3.3296856E-1,3.433763E-1,9.056794E-3,3.582135E-1,6.298373E-3,1.1597816E-2,6.407827E-4,3.2366723E-2,-5.642109E-4,3.346703E-1,-1.9925002E-3,3.3335656E-1,-2.030334E-3,-3.046559E-3,3.3332828E-1,-1.1151747E-2,9.9272335E-1,3.3407822E-1,3.3331156E-2,3.3332717E-1,4.892984E-3,1.2606132E-2,8.21434E-5,6.6614693E-1,2.3447564E-3,4.780083E-3,3.8659517E-3,7.7232397E-3,2.02728E-3,6.991889E-3,-5.050709E-3,3.0159205E-4,6.6667736E-1,3.347523E-1,-5.8637722E-3,-9.267313E-3,9.8239025E-3,1.7184235E-2,6.4594387E-3,2.6304305E-3,3.3333942E-1,1.9335806E-3,1.4738996E-1,-8.733849E-3,3.4835196E-1,6.9416806E-6,2.2816211E-2,1.0221317E-2,3.4719282E-1,6.458176E-3,2.375044E-4,3.2910835E-2,3.335124E-1,-6.6609087E-4,3.3229426E-2,1.9239866E-3,3.319789E-1,3.3403996E-1,3.2910835E-2,-5.9268153E-3,3.3318204E-1,3.3439538E-1,3.333413E-1,7.4409926E-3,3.3309746E-1,3.3335248E-1,-3.055571E-3,6.670096E-1,2.4489232E-3,-1.6271189E-3,-3.756779E-3,3.4041026E-1,8.839561E-3,5.7259942E-3,-2.8229377E-3,-4.8715067E-3,4.7043525E-3,8.969344E-3,5.8207735E-3,9.471932E-3,2.0947182E-3,-3.895238E-3,-1.9421763E-3,-1.0061503E-3,1.1821893E-3,2.7957929E-3,6.150501E-4,-8.5369154E-4,-5.5919695E-3,-1.0467841E-2,-6.2514655E-3,-3.3162336E-3,-3.585261E-3,1.7140814E-3,9.16465E-4,4.4066315E-3,-5.4861926E-3,-8.911971E-4,5.6525576E-3,1.9455705E-3,-1.5398009E-3,9.102617E-3,-2.9238216E-3,1.9509959E-3,-3.206869E-4,-1.5657357E-3,-8.982495E-5,-2.102925E-3],"split_indices":[3,3,0,0,0,1,3,0,3,0,3,0,0,0,0,0,1,1,1,0,1,0,0,1,0,3,3,1,0,0,0,0,1,0,0,0,1,0,0,1,1,3,3,3,1,3,3,3,3,0,0,1,3,1,0,0,1,0,1,1,0,1,3,0,1,1,0,0,3,1,1,1,3,0,0,0,0,0,0,1,1,0,0,3,1,0,0,1,0,0,1,1,0,0,0,0,0,3,3,0,1,0,0,1,3,0,0,1,1,1,0,1,1,3,3,0,0,1,0,0,3,1,0,0,3,0,0,0,1,0,1,0,0,1,0,0,0,0,0,0,3,0,0,3,0,0,0,0,0,3,0,0,0,0,0,0,3,0,3,0,1,0,0,1,0,0,3,3,1,0,0,0,3,0,0,0,0,0,0,0,0,3,0,0,0,0,0,0,0,1,0,0,0,0,1,0,0,0,0,0,3,3,0,3,0,3,3,3,0,3,3,1,0,3,1,0,3,0,0,0,0,0,0,0,0,0,0,0,0,0,0,0,0,0,0,0,0,0,0,0,0,0,0,0,0,0,0,0,0,0,0,0,0,0,0,0,0],"split_type":[0,0,0,0,0,0,0,0,0,0,0,0,0,0,0,0,0,0,0,0,0,0,0,0,0,0,0,0,0,0,0,0,0,0,0,0,0,0,0,0,0,0,0,0,0,0,0,0,0,0,0,0,0,0,0,0,0,0,0,0,0,0,0,0,0,0,0,0,0,0,0,0,0,0,0,0,0,0,0,0,0,0,0,0,0,0,0,0,0,0,0,0,0,0,0,0,0,0,0,0,0,0,0,0,0,0,0,0,0,0,0,0,0,0,0,0,0,0,0,0,0,0,0,0,0,0,0,0,0,0,0,0,0,0,0,0,0,0,0,0,0,0,0,0,0,0,0,0,0,0,0,0,0,0,0,0,0,0,0,0,0,0,0,0,0,0,0,0,0,0,0,0,0,0,0,0,0,0,0,0,0,0,0,0,0,0,0,0,0,0,0,0,0,0,0,0,0,0,0,0,0,0,0,0,0,0,0,0,0,0,0,0,0,0,0,0,0,0,0,0,0,0,0,0,0,0,0,0,0,0,0,0,0,0,0,0,0,0,0,0,0,0,0,0,0,0,0,0,0,0,0,0,0,0,0,0,0],"sum_hessian":[2.423E3,1.603E3,8.2E2,5.29E2,1.074E3,2.36E2,5.84E2,4.22E2,1.07E2,6.51E2,4.23E2,1.65E2,7.1E1,2.57E2,3.27E2,3.77E2,4.5E1,9.8E1,9E0,3.34E2,3.17E2,4.14E2,9E0,1.51E2,1.4E1,4.5E1,2.6E1,6.7E1,1.9E2,2.32E2,9.5E1,2.64E2,1.13E2,2.2E1,2.3E1,3.2E1,6.6E1,4E0,5E0,2.31E2,1.03E2,2.44E2,7.3E1,1.84E2,2.3E2,7E1,8.1E1,1.2E1,3.3E1,2.2E1,4E0,4E1,2.7E1,1.02E2,8.8E1,2.31E2,3.3E1,3.1E1,8.2E1,3.3E1,3.3E1,6.5E1,1.66E2,1.7E1,8.6E1,2.09E2,3.5E1,4E0,6.9E1,8.5E1,9.9E1,1.73E2,5.7E1,1.9E1,5.1E1,3.5E1,4.6E1,8E0,4E0,2.1E1,1.2E1,9E0,1.3E1,1.2E1,2.8E1,4E0,2.3E1,6.2E1,4E1,1.35E2,9.6E1,2.7E1,6E0,3.8E1,4.4E1,2.9E1,4E0,5E1,1.5E1,9.6E1,7E1,3E1,5.6E1,1.05E2,1.04E2,1.6E1,1.9E1,1.6E1,5.3E1,4.9E1,3.6E1,2.5E1,7.4E1,7.7E1,9.6E1,4.2E1,1.5E1,2.8E1,7E0,1.1E1,1E1,7E0,5E0,4E0,8E0,2.5E1,3E0,4E0,1.9E1,2.5E1,3.7E1,3E0,3.7E1,1.1E2,2.5E1,4.1E1,5.5E1,1.5E1,1.2E1,2.1E1,2.9E1,3E0,1.2E1,3.3E1,3.7E1,6E0,2.4E1,5.2E1,4E0,8.4E1,2.1E1,3.7E1,6.7E1,1.4E1,5E0,3E0,1.3E1,3E0,5E1,2.4E1,2.5E1,1.7E1,8E0,3.7E1,3.7E1,3.7E1,4E1,3.4E1,6.2E1,4E0,1.1E1,3E0,2.5E1,5E0,6E0,5E0,5E0,3E0,4E0,5E0,3E0,8E0,1.1E1,2.1E1,1.6E1,6.3E1,4.7E1,2.6E1,3E0,3E1,3E0,3.5E1,1.7E1,5E1,3.4E1,1.8E1,3E0,4.4E1,2.3E1,3E0,1E1,4.6E1,4E0,2.2E1,3E0,1.9E1,1.8E1,6E0,3.1E1,2.8E1,1.2E1,1.8E1,1.6E1,1.5E1,4.7E1,3E0,2.2E1,3E0,5E0,5E0,6E0,1.6E1,1.4E1,1.1E1,2.4E1,4.6E1,4E0,2.6E1,8E0,4.1E1,3E0,4E0,6E0,3.3E1,1.3E1,8E0,1.4E1,5E0,1.4E1,1.1E1,7E0,3E0,3E0,1.6E1,1.2E1,4E0,8E0,1E1,8E0,6E0,9E0,3.2E1,1.5E1,8E0,1.4E1,3E0,3E0],"tree_param":{"num_deleted":"0","num_feature":"4","num_nodes":"257","size_leaf_vector":"1"}},{"base_weights":[2.4665447E-3,1.0969236E-1,-2.1012795E-1,2.356505E-1,4.690524E-2,-6.467842E-2,-2.6659426E-1,2.6485392E-1,1.2863773E-1,8.1824064E-2,-8.977024E-3,-4.2433586E-2,-9.012067E-2,-2.001444E-1,-3.165299E-1,2.3930582E-1,2.4363214E-2,1.3175255E-1,8.24454E-2,4.4730958E-2,1.2086388E-1,-9.356699E-2,4.9648717E-2,-5.7663918E-2,1.6605107E-2,-6.880749E-2,-1.674019E-1,-6.896716E-2,-2.4922779E-1,-1.7666897E-2,-1.1289352E-2,2.7848208E-1,1.4682634E-1,7.4806004E-3,1.17910884E-1,2.0611181E-3,4.7111753E-3,1.1359308E-1,-9.773892E-2,1.9567981E-1,8.6463615E-2,-3.208421E-2,-1.4591394E-1,3.6008004E-2,2.2377437E-2,-7.025241E-2,-2.8190317E-2,3.4289457E-2,-3.2263529E-3,-2.9804906E-2,-1.3125528E-1,-5.391684E-3,-9.150019E-3,7.840067E-3,-1.0204455E-1,-2.0665415E-1,-1.4546222E-2,2.3540734E-1,5.273349E-1,7.406957E-3,3.6844702E-3,1.20326675E-1,2.5494196E-3,6.360438E-2,1.5540928E-1,-1.9311991E-1,-7.465387E-2,1.11301E-1,2.4140382E-1,6.492472E-2,2.2143044E-1,-8.506371E-3,-4.6346024E-2,-1.2448714E-1,-1.3244942E-2,-1.9734895E-2,8.961058E-2,-1.1397785E-1,-4.2179998E-2,7.57933E-3,-8.694136E-2,4.3648772E-2,1.2911754E-3,-4.864992E-2,-5.006768E-3,-4.4716434E-3,-7.3100175E-3,2.7921533E-2,-4.4753454E-3,4.087262E-4,-1.0941046E-1,-1.0747793E-1,-1.2573183E-2,2.9779032E-1,6.6157556E-3,4.5065382E-1,3.372919E-2,1.0083798E-1,1.3902628E-1,7.078301E-2,-4.8277434E-3,6.8283095E-3,8.602484E-3,-1.047873E-2,-3.5396896E-3,-2.2707595E-2,-9.858507E-2,7.718125E-2,1.4302844E-1,2.6801258E-1,1.784229E-1,1.18769914E-1,5.689389E-2,2.7953184E-1,6.1974614E-3,-3.2061968E-2,2.6575377E-2,-2.573162E-3,-1.4938519E-3,-1.4695626E-1,-1.05173275E-1,5.5641137E-2,-1.1837135E-1,-8.739223E-3,1.09875575E-1,-1.3446912E-1,1.6170699E-3,-2.476921E-2,-4.857934E-3,-1.00961596E-1,4.2001158E-4,2.6243038E-3,9.740316E-4,-1.810668E-2,-6.0877655E-2,4.1667655E-2,-4.1321903E-2,1.850605E-4,3.413354E-2,-1.1770041E-1,-8.9463836E-4,-5.99548E-3,-3.8900997E-3,2.4665383E-1,2.513353E-2,2.4992129E-2,1.5606495E-2,3.8665512E-3,6.272904E-3,7.490687E-3,1.7075606E-3,5.3269655E-2,9.8492235E-2,7.26039E-2,-5.613325E-3,-3.748547E-3,2.1668542E-2,-1.3973302E-1,-5.0036166E-2,1.1331016E-1,4.3652803E-2,7.860295E-3,3.7362946E-3,2.0451763E-1,1.5716676E-2,6.276821E-3,1.1466651E-2,5.2555714E-2,7.4296147E-3,4.848548E-2,6.036211E-3,1.5162267E-2,6.0361633E-3,-2.1263761E-3,-1.2355894E-2,4.1148696E-2,-2.4858356E-4,-3.5727564E-3,-1.6388415E-1,-6.501107E-3,-8.6123176E-2,8.218718E-3,-8.869827E-3,-1.0259532E-2,-5.5739854E-2,2.454951E-2,1.77205E-1,-6.1583936E-2,-1.5657072E-1,4.423327E-3,-3.3921655E-2,-5.952248E-3,-6.3623235E-2,-1.4648597E-3,-5.2836538E-5,-4.070856E-3,-4.1975126E-2,-2.5010803E-3,4.1151918E-3,-2.358295E-3,-3.9974307E-3,2.1035539E-3,2.4167279E-2,-1.2531818E-1,-7.5844325E-2,1.2515292E-2,6.9600116E-3,6.713015E-2,-5.7696947E-3,1.3037786E-1,5.9363384E-2,5.0573127E-4,5.847111E-3,2.135963E-3,7.05315E-4,-5.048375E-3,-8.321416E-3,-9.683727E-2,1.8614296E-2,2.0881062E-3,8.109808E-3,8.337129E-4,3.9043955E-3,1.1500766E-2,5.1218793E-3,1.4358868E-3,3.7586875E-3,6.701956E-2,2.2243537E-2,-1.1348948E-3,-8.055568E-5,7.864952E-4,2.561822E-3,-5.1268223E-3,-9.215905E-3,-2.2547578E-3,-9.4865486E-2,8.325284E-3,-4.5082934E-2,-3.8553353E-3,